[
    {
        "act": "ReLU",
        "loss": "MSE",
        "epochs": 100,
        "l_rate": 0.1,
        "bias": [
            [
                -2.9581999776764576,
                -0.8950022973172957,
                0.7571746605321047
            ],
            [
                1.4724250554771647,
                -0.05040738252730589,
                0.9965456088083836
            ],
            [
                -0.24364344477694835,
                0.6679707999833004,
                -0.2752614318333861
            ],
            [
                1.3729732350308108,
                0.1381067745542447,
                -0.8577409832531957
            ],
            [
                -0.7633633135779703,
                0.29135361464682574,
                -0.4839925780568472
            ],
            [
                -0.3769430157114876,
                -0.0661130765996921,
                -0.7890867039278595
            ],
            [
                0.248128930500866,
                -0.5652858886167434,
                -0.16726912148417047
            ],
            [
                0.1947034841507151,
                0.8462838331572119,
                -1.804168201798115
            ],
            [
                1.3299300687347877,
                -0.16489243160484854,
                -1.0495132857964569
            ],
            [
                1.2350595442875392,
                1.8255847508112142,
                -0.3597273625080472
            ]
        ],
        "weight": [
            [
                [
                    -0.9314608280119983,
                    -0.8925091308282532,
                    0.4260508124691633,
                    0.30962070221866056,
                    1.0458101966828057,
                    0.6509368564815384,
                    -0.20597002609848378,
                    0.07056364677981432,
                    0.18531726588176667,
                    1.5903978254323023
                ],
                [
                    -1.4299531357627795,
                    -1.0857928293574004,
                    1.0306786959429282,
                    0.049608430919947814,
                    0.5779101491786107,
                    0.544325079336677,
                    0.47215609749695076,
                    -0.6392648267178478,
                    0.49841665667853124,
                    1.6957559666417201
                ],
                [
                    -2.4525461922998497,
                    -0.08552440735430321,
                    0.399062293279723,
                    0.7917949032708049,
                    0.9212184066254664,
                    0.5789241035444418,
                    -0.3899234763084918,
                    0.5460721654601404,
                    -0.6913989982805822,
                    0.5541303570515337
                ],
                [
                    0.7916356045126679,
                    -0.9705043741716958,
                    1.5573599401782516,
                    0.40710980735965596,
                    -2.481392986567764,
                    1.2734551912558751,
                    0.5091114476454174,
                    0.25925592005508846,
                    0.5245516119242715,
                    0.5266649895601088
                ],
                [
                    0.8678850938220597,
                    -0.9720738801479838,
                    -0.8018931362085039,
                    0.9010105834344577,
                    -0.4884244748977566,
                    0.09488794154475853,
                    0.2605079784166218,
                    0.13591101284149973,
                    0.4575129430807402,
                    -0.2766200197883144
                ],
                [
                    -1.411916360168498,
                    0.0945582896156062,
                    -0.42943091397561267,
                    -0.08144474785382133,
                    -0.9943075948690502,
                    -2.3615152147849225,
                    0.44707839903872715,
                    -0.5152894899344065,
                    0.3636314399123687,
                    0.9199498774899583
                ],
                [
                    0.35738092065246824,
                    1.1894341291450754,
                    -2.1262097581164507,
                    0.5164469176970845,
                    -0.2229959172965917,
                    0.9918885561474796,
                    -0.06913321267320742,
                    0.6965582265462765,
                    -1.211398930747786,
                    0.47681901967149426
                ],
                [
                    0.7939538648785947,
                    0.8828963513701437,
                    -0.6110082022885266,
                    0.09395118525125012,
                    0.5097711869621739,
                    0.6295402367527868,
                    -1.6512130463885766,
                    -1.5756426502864322,
                    1.3172320402364912,
                    -0.5946331336816876
                ],
                [
                    0.9134076022948422,
                    0.6278982527067754,
                    0.8328260543516667,
                    1.0097140142272285,
                    0.51655826223526,
                    0.19748089598877863,
                    0.04143934442312364,
                    -0.47305657065418355,
                    -0.4067283676399667,
                    0.9454801089012692
                ],
                [
                    -0.6459285887767561,
                    0.7836499175555246,
                    -0.9364958292041671,
                    -0.7956140056847015,
                    0.09030663292664484,
                    0.6013662120069435,
                    1.3124035103293745,
                    -0.8108587471280075,
                    -0.4559996316274722,
                    1.137277943462979
                ]
            ],
            [
                [
                    -1.975852570580149,
                    0.696277268637441,
                    0.059996657184734216,
                    0.6687873104100943,
                    -0.16558040013425915,
                    0.22080673833667308,
                    -0.830379296802606,
                    0.8769681917162014,
                    -0.6857112497106947,
                    -0.42008660688437416
                ],
                [
                    1.4197403613511819,
                    -0.2882711815486134,
                    0.5887345155202985,
                    -1.1569242514060054,
                    1.2851233573002638,
                    0.9990312038076857,
                    0.4358840584926559,
                    0.6517137055151941,
                    -0.2021165599438218,
                    -0.798718325769715
                ],
                [
                    -0.6142289797299545,
                    -1.2398844780341844,
                    -0.6751692628853709,
                    0.7748651742146951,
                    -0.7262383816400629,
                    -0.7312074471134747,
                    0.6869624897214804,
                    0.2486333345252758,
                    0.895782959014779,
                    0.29210960649160445
                ],
                [
                    -0.15387816111423788,
                    3.402932194276889,
                    -1.500516645266321,
                    1.252826178676317,
                    0.6749733760779068,
                    0.5206062514733847,
                    -1.193245932099497,
                    0.7585572540316002,
                    -0.9182923758035915,
                    0.0050349840202318285
                ],
                [
                    0.21698777943274555,
                    -0.5892534229304369,
                    0.4645548523708446,
                    -2.0315018132888967,
                    0.6281132366224887,
                    -0.8273619272711004,
                    -1.7849637536959633,
                    0.1983942103411658,
                    -0.042066698710734735,
                    2.8285513546661862
                ],
                [
                    -0.7209224456534914,
                    0.6724016620304444,
                    -0.17779096917466258,
                    -0.4979718225721666,
                    0.11664296821271238,
                    -2.1767965531123044,
                    -1.2494201440679336,
                    -0.7886959804519658,
                    0.6005751138790595,
                    1.479442678459367
                ],
                [
                    -0.4828557187198945,
                    1.2323694698139858,
                    -0.7258334467390093,
                    1.8375659474645405,
                    0.3209127283659049,
                    1.0832656629094866,
                    1.0934484464581977,
                    1.2779218919491173,
                    -0.7420771413989647,
                    0.7154649415931681
                ],
                [
                    1.1229106618440838,
                    -0.7565645344493155,
                    0.89450378185341,
                    -1.2819132644159417,
                    1.215862383010883,
                    -1.212686272009138,
                    -0.2720095120178468,
                    -0.041822327770299136,
                    -0.9935399592000691,
                    0.19449200122043092
                ],
                [
                    0.24099129762551633,
                    0.9531320960719939,
                    -0.9520273267598276,
                    -1.564531026336173,
                    -0.712287480501595,
                    -0.33839126169829065,
                    1.0575343121569185,
                    -0.15662766852662452,
                    -1.2699345426908852,
                    -0.027280169543739408
                ],
                [
                    1.1354943489202076,
                    0.6218445378565225,
                    1.6973814010468014,
                    1.4342999561158827,
                    -0.3029502927180953,
                    0.5910693606127649,
                    0.35322184961504954,
                    -0.5504466086269212,
                    -0.5489322437111075,
                    -0.9910572294991499
                ]
            ],
            [
                [
                    0.06198903370647998,
                    1.2406174305738695,
                    -0.5463718748554293,
                    0.8031892586376982,
                    0.25132094921220616,
                    0.9543800961792743,
                    -0.4925039300084629,
                    0.16148095416558433,
                    -0.38471488573578794,
                    -2.025082539771142
                ],
                [
                    -0.7037450536608333,
                    0.8991873930231158,
                    1.1914749087127807,
                    1.0869314628833995,
                    -0.9155064739702884,
                    0.925442300956406,
                    2.1979095457545816,
                    -0.08786846198112529,
                    -0.5398853923567885,
                    0.18692874797764938
                ],
                [
                    -0.3735120199995319,
                    0.14426798251278974,
                    -0.7407388749623622,
                    -1.4666540745235515,
                    -1.089392312770165,
                    0.11834655760783912,
                    0.1959452997676529,
                    1.0282462073235623,
                    -1.6299946350198937,
                    0.6249111266344891
                ],
                [
                    -0.5764174654974139,
                    0.38170710346500497,
                    0.5501457470235971,
                    1.1120223664501987,
                    1.1616493910426264,
                    0.20851827207410079,
                    0.10513329071908828,
                    -1.156661325046063,
                    -0.2531714625795785,
                    -0.8961561890255584
                ],
                [
                    -0.43308025426527685,
                    1.116646877637946,
                    0.23965140277690605,
                    -1.5077049645764398,
                    -0.3433549999445127,
                    -1.4975657644410658,
                    0.740772390569151,
                    -1.8313792390586185,
                    -0.47790045693519856,
                    0.922833079865691
                ],
                [
                    0.3406732949902284,
                    -1.1962775681852416,
                    -0.8338167785733916,
                    -0.014664468368590955,
                    -0.8637189170997939,
                    -0.7654542564519806,
                    0.7863901090449616,
                    1.5550235321838777,
                    0.0214561813244046,
                    -0.5427353679560872
                ],
                [
                    -0.21789566499349508,
                    -0.42126060308748603,
                    1.9415360676578304,
                    1.6899563183040494,
                    0.3494126906808326,
                    -2.184348430318592,
                    1.3378325084313096,
                    -2.0923461223734394,
                    0.35480200204515155,
                    -0.28033031359519744
                ],
                [
                    1.8138766321440232,
                    -0.10060945519950056,
                    0.4382472672132821,
                    -0.12088931892045497,
                    1.1601835778785714,
                    -0.20059990199616898,
                    0.24762648385650957,
                    -0.15684063317088767,
                    1.0787968534623051,
                    1.0898135513711016
                ],
                [
                    -0.12296556089585471,
                    0.8086637178632977,
                    -0.4214746797696686,
                    0.9105807511760013,
                    -0.612793387919907,
                    1.3985898593943682,
                    -0.14667021750964981,
                    1.0205960406625423,
                    0.20632092520519651,
                    -0.6892700083659834
                ],
                [
                    0.6929902817759359,
                    -0.36593390035449186,
                    0.2885599407585547,
                    0.05399068294423444,
                    0.8316778625658762,
                    1.218984662313232,
                    -1.331636543596156,
                    -0.43366393436206285,
                    0.1494705771523613,
                    -1.6463202595182975
                ]
            ]
        ],
        "biasC": [
            [
                -1.3254206867092755,
                0.31355764375808126,
                -1.4132022917683602,
                -1.1940513328519475,
                -2.107706056377249,
                -2.1631254200129573,
                -1.012185066438493,
                -0.014090796525634306,
                -0.18711360405573377,
                -0.13659182258299826,
                -1.1318981685006877,
                1.201142754856293,
                -0.19767295595611054,
                -0.7996160801773543,
                -0.1814557997207862,
                0.6465578175298532,
                -0.03274977240783396,
                1.5348695653689295,
                0.2915961198129573,
                -0.46231039326973683,
                -0.5087501269428121,
                -0.8707934529709199,
                0.7378130133929648,
                0.12115858182019949,
                -0.4781952827453712,
                0.6218982615584364,
                -0.27822425958149094,
                1.3281349583428315,
                -1.004015559435568,
                0.4487593161553579,
                -0.18638903741886478,
                0.2124648656016923,
                -1.0180300510205345,
                0.10252263436169717,
                0.2076213952574908,
                -1.589998935194517,
                0.2123407172310091,
                1.0072595243138718,
                1.6949551994163536,
                0.4610629176893655,
                -0.36930415141260187,
                0.11490696542653872,
                -1.0053517445152085,
                1.0457489413561822,
                1.9839351720258023,
                1.266998306243885,
                1.8395903155622613,
                0.22615202331099812,
                0.3257912006493999,
                0.677315304549351,
                0.7278514189565122,
                -0.31425199402285814,
                0.7188306834057755,
                -0.5156553080013885,
                0.5377351396975689,
                -1.4074743076006992,
                1.054142692842198,
                -0.39457595912140614,
                0.29868882927099905,
                -0.2535563564881985,
                0.7295346530394408,
                0.10769141955900176,
                0.5912990067657274,
                0.1564635169747053,
                -1.4809237881884816,
                0.7488683528817583,
                2.631652223882666,
                0.11550346802272864,
                -2.115509674947652,
                1.4995684019127313,
                -0.416632458320389,
                0.3179421475303595,
                1.697493242595009,
                0.6465512585903403,
                2.0427106092325986,
                -1.4286973023236322,
                -0.22496957203207163,
                0.6502691551416678,
                -0.2685994946595573,
                0.38117161409370304,
                -1.0600619909878752,
                -0.23189359068470716,
                -0.9560509623952735,
                -0.19689689898025584,
                -1.9359519560194367,
                -0.4606061742334595,
                1.4517709577783002,
                -0.628198277272553,
                0.5620417220574561,
                -1.5247492792642523,
                0.5699317242117752,
                0.015125871601685088,
                -0.9571232730580475,
                0.37212883757214543,
                -0.7479894917036796,
                -1.6331098597233107,
                -0.8364652868590965,
                0.3147825269137751,
                0.00246908886276905,
                0.5505014357697005,
                0.2961330012542112,
                -0.24133063795211993,
                -1.3676813060457298,
                -0.7141812412796754,
                0.43193500881055535,
                -0.7431622462689118,
                1.9932787716290175,
                0.27808181137794435,
                -0.37940559175094585,
                -0.044447320946589375,
                0.01583051646682269,
                0.336981322281048,
                0.40560558267914953,
                2.1074641686949196,
                -0.9072651713142331,
                -0.21536533499551716,
                -0.5761257507623189,
                1.2838856044577942,
                -0.8770644473005059,
                1.2917474151535626,
                -0.6948622073268176,
                -2.3743400787609477,
                0.8400503669872911,
                -1.2638273600330345,
                -1.1655510177141046,
                -0.487552506914893,
                2.512175528160512,
                -1.1956570039644108,
                -0.04623867711173623,
                -0.9265507036568617,
                1.9603325309825679,
                -1.485741375057387,
                0.9435691324319974,
                1.0954822372370794,
                -0.34454184640938235,
                0.3746022876342305,
                -0.7392134025352064,
                0.5405070532358606,
                -0.5296617036671979,
                0.24970556610259595,
                -0.8950171292452852,
                0.9390951240696725,
                0.28101028777253356,
                0.19651251999248717,
                1.2322943691047004,
                -3.4244058358368563,
                0.7991727070976877,
                0.4087512044335858,
                -1.154900448692922,
                0.6919931610586805,
                0.04511274529879475,
                -2.548075319465454,
                -0.6771298151987732,
                0.9020153845412897,
                -1.2391504698829667,
                -0.06108603009056698,
                0.9979494107826807,
                0.8592466707936899,
                0.36342110043682974,
                0.820454187812489,
                -0.7391051916118475,
                -1.2537646657584762,
                -0.7979300554336196,
                0.8199874909666758,
                1.0142326323240398,
                -0.044828983634036354,
                -0.5277004347517001,
                -1.4704771445847626,
                -0.5553832988613179,
                0.49562626390133047,
                0.9377636955447898,
                0.22897038567216751,
                -0.36521346115513453,
                -1.2365010875552227,
                1.5832182887129,
                -0.19352834877470532,
                1.1749198639198246,
                1.4762142649318746,
                -1.2431230870080534,
                -1.1375667776304457,
                1.4826444165001753,
                -0.4502902851536766,
                0.6190653005083111,
                -0.5269909669602605,
                -1.6722285310217107,
                0.8739003785360957,
                -1.645183160010485,
                -0.2559468184291206,
                0.3451602293436406,
                -0.06145710509805883,
                -0.5590955918709898,
                -1.3981302941331404,
                -0.2155113358293971,
                1.2193163623533858,
                -0.6975675924231859,
                -1.2046092572302607
            ],
            [
                0.034947163387711394,
                1.35913231846053,
                -0.5961654834241643,
                -0.7905842509255652,
                -0.4267066228809151,
                0.0337182208295827,
                0.5096836536244355,
                -0.6536778215652037,
                -1.4549245486613318,
                -1.006594100514577,
                0.3259433973151571,
                -0.019566002064363108,
                3.1418347241959386,
                0.5468139671325469,
                0.8008301646345563,
                1.3216389175661534,
                1.7888849116373646,
                -0.030511468621660938,
                -1.8798022962617598,
                1.0047931623536057,
                1.1911762001860602,
                3.738562320595147,
                1.0063841513551983,
                0.6673147438249074,
                -1.6325072140256045,
                0.4806570578640581,
                0.27359509693840983,
                -1.5049856430302315,
                0.93544350585848,
                -0.13034088682990785,
                0.20787698650404857,
                0.7675379216584866,
                -1.7393616280638102,
                1.1110643084216512,
                -0.7167018740171636,
                -0.4001308574895092,
                1.403500062130001,
                -1.0866483318943936,
                1.4606625654638627,
                -0.04701832037109081,
                -0.27111630957525196,
                -0.17827293128970073,
                1.1647553031220772,
                -0.11286942339269895,
                0.8439296453858234,
                -1.5628974452330022,
                1.705682930927663,
                -0.6485456156128064,
                0.8804360676231331,
                1.464544832098415,
                -0.24776941083292633,
                0.43517419557164927,
                0.24920289201195597,
                -0.5260278811030381,
                0.6846409450703967,
                -1.9327372680862922,
                -0.6600833293442621,
                0.3048341581501116,
                1.1304576560933752,
                0.13954460817914263,
                -0.0370771634027956,
                -0.9647936554185627,
                1.1793213433739562,
                -1.080019340013049,
                0.03303001898067254,
                -0.8533617918997691,
                0.6595560957560141,
                -0.18049348573452068,
                0.42145610110547743,
                0.4333567846388347,
                0.07527581260174478,
                1.8629808798219583,
                -1.6156211199645962,
                0.2226370874194447,
                0.48514213581502125,
                -0.598390075680678,
                0.008625525866787895,
                0.028570482896495993,
                -0.9851636288169817,
                -0.9260481569158119,
                -0.36782948422569456,
                -1.3223438760720556,
                -0.6548397669488251,
                -0.03846970454591317,
                0.9222577245565353,
                0.3943042048615557,
                -0.40487706041991406,
                -0.5457604387241436,
                -0.34056516162069644,
                -1.2003455915106274,
                0.451477723320873,
                0.24518852396836124,
                -0.5023358447936916,
                -0.14962315420859512,
                -1.380236764553274,
                -0.03974627263727534,
                2.597839248647235,
                -1.2358109615299928,
                -0.36285881598726577,
                0.04853921454253197,
                0.03374240287341354,
                0.14502470707241094,
                -0.4276607828486499,
                0.7080038644239445,
                -0.6460677399396252,
                -0.37114539919056533,
                -0.2686955683335406,
                -0.6276444127882814,
                -0.9635758379437394,
                0.6122875943329396,
                -0.5705780644795372,
                0.9009592193553814,
                -0.04583593796911576,
                -1.846230820012097,
                0.523931204406657,
                2.01439341119721,
                -0.3574697243893515,
                1.6597108537570873,
                -0.33133585752828015,
                -0.2520342434884896,
                -0.7385466191141188,
                0.9928327824610634,
                0.831535505042713,
                0.3964002503779663,
                0.41580394305672,
                2.121343890344511,
                2.82267973986657,
                -0.02548985089723072,
                -0.14740916227449827,
                1.7641733927500862,
                0.5968805239971932,
                -0.16277033283260509,
                0.2681737580847808,
                -0.0789772804422218,
                -0.3648454571134087,
                -1.3601489453390834,
                -1.1995803964513907,
                -1.3048383132404044,
                -2.402015207303146,
                -0.7269455884581408,
                0.7742116711144503,
                1.5327515213784415,
                -0.36361960142707384,
                0.900428514752746,
                -0.12980990973400783,
                -1.1395738458280762,
                0.46978529935290336,
                0.16548650471543366,
                1.2992080550817722,
                -0.6234769587315805,
                1.080958191054642,
                -0.4898038080122578,
                1.9766063584780549,
                1.297392180923979,
                0.5296323865827057,
                -0.6219083422347929,
                -0.7933145341095166,
                -0.07026809119079282,
                0.17305308079019519,
                0.3918926082642995,
                -1.139670368703863,
                0.24725419193771295,
                -0.13782190947985296,
                0.29161421335839544,
                1.3377895057009692,
                -1.4241351329539649,
                -0.36552976176421864,
                0.5354146388219351,
                0.37723805233683666,
                1.296268750436656,
                1.5267110007846254,
                0.2301428881445014,
                0.19101319287963875,
                0.9465051977098478,
                0.6959730983048746,
                -1.4303655867574019,
                0.8746155792322954,
                0.5655348148062564,
                -0.21231562737457624,
                -0.1055417410574078,
                -1.1554938330107918,
                1.8637714680090638,
                0.3753254678072402,
                -1.877745911708945,
                -0.658929942930799,
                -0.33072151579513437,
                0.47989967031937286,
                0.43405251636190184,
                -0.4111298663503757,
                0.6112724103029985,
                -1.510046118726498,
                -1.2120306497695221,
                1.0006707379680497,
                -0.12914986300022452,
                1.0153172265238588,
                0.8995912903620985
            ],
            [
                0.18566776196717108,
                0.3809544305093984,
                0.6719444276478668,
                1.4362378724751155,
                -0.9190287228425424,
                -1.0830209313669463,
                1.6031967001093697,
                0.39269283546809985,
                1.300379346757031,
                -0.6813137077372063,
                -1.1386285232733284,
                0.16756793948054244,
                -1.2989930712229116,
                1.836989975813959,
                1.2713853623320088,
                1.2880790199910448,
                -1.537083061574264,
                -0.3163400373644108,
                -0.6898442156321148,
                0.6043268915977615,
                0.7485793956823358,
                -0.661575887051006,
                -0.7177438557317968,
                -1.7562567489615468,
                -0.0905406241317336,
                -0.5346135969184034,
                -1.8454059148537698,
                1.4285492494488128,
                -0.8393661570758814,
                0.09340370275137233,
                -0.3323892408628385,
                -0.31012174213671,
                -1.078048637702189,
                -1.1209233014934188,
                -1.211680029588596,
                -0.48527185065933787,
                -0.8495566136092151,
                -0.2226550130512775,
                1.7214019275656558,
                -1.2030597013770679,
                -0.15169802615463243,
                0.9047919281448382,
                0.9955848443384665,
                -0.36729973017976986,
                0.7634008659176977,
                -0.47528706345219585,
                -0.32213094320830366,
                1.4945621498986705,
                0.8750232069495044,
                -0.3337361041570357,
                -0.7491578895231902,
                -1.8959293645570645,
                0.36193091551527945,
                -0.03797636853743262,
                -0.7832676520785868,
                0.38403773905905336,
                -0.2638949098985341,
                -0.34933873346245004,
                -1.3697305583456587,
                0.5510079256283027,
                0.007286907479669426,
                0.1894210520294315,
                -0.8695507334550212,
                -0.568391333986409,
                0.15598048662527994,
                1.0643622934483665,
                -1.9246749765909588,
                0.8251564664999528,
                1.0356068475555817,
                0.4194319808830073,
                -0.5075732583934265,
                0.2527572826814867,
                -1.6718150661783406,
                0.16359268000317398,
                0.8531793533523567,
                -0.45181979956920165,
                0.7591169366029596,
                -0.9657823701523807,
                -0.12418320273156419,
                1.811516940027112,
                0.848227460701097,
                0.8138984748274916,
                1.8859312047057946,
                -0.10548852629429703,
                0.720728982293233,
                -0.5941649459388956,
                0.9269467427715947,
                0.057011644552202735,
                -1.427923930810145,
                0.7932158654941315,
                0.7590648668251534,
                -1.8293923443311182,
                -1.1590535951344112,
                0.41214035271509303,
                0.08483012428032558,
                -0.526534445003267,
                1.2128578142848856,
                -0.3079342903840058,
                1.0361744659941756,
                1.6891112375004615,
                -1.8535716775789495,
                -0.7421598132691976,
                -0.2324900223269474,
                0.4498437213286633,
                -0.21904976347122615,
                1.2411717482079463,
                -2.732878265818737,
                0.4118342647042116,
                -0.8310265331487477,
                -1.6945009712595918,
                1.1713281765627424,
                -0.24501003917695383,
                0.9631656691913753,
                1.4503032375722775,
                -1.3397299371230684,
                0.588779104660912,
                1.1130689352300758,
                0.033427396648829405,
                -0.24816633047329578,
                -0.8899048421108481,
                2.1615485469078672,
                -0.8235102524805182,
                0.542854328811216,
                1.5606108770503635,
                1.9564321360873764,
                0.46032997753692795,
                0.6824436668029736,
                0.6525344633420965,
                -0.16790319589199967,
                1.8308973656825118,
                0.8886677189035203,
                2.1793003618838793,
                1.368124910726213,
                1.4063940725402502,
                1.0467827818126565,
                0.1936296298201625,
                -1.4614770028370834,
                -0.40665066369894165,
                0.19335969937092204,
                -0.34953815406594435,
                -0.12398777275298177,
                0.9020023723535285,
                -0.12992102937854957,
                -0.5835951425357112,
                1.3013512316807616,
                0.888050368087314,
                1.153054280780853,
                -1.1387016366683287,
                -0.05400170833900996,
                -0.18579583939962416,
                0.6268870592218231,
                0.4168110219283076,
                -0.9369818229612116,
                0.818956350741849,
                1.5526881480688974,
                1.1266487879474858,
                -0.37049530789967045,
                1.4125586638448162,
                -2.070017164081129,
                0.30149245787794826,
                1.7509560615924167,
                0.1488354839861547,
                0.24587908849064719,
                -0.895398234616003,
                -0.49662046843670943,
                -0.29275589532364316,
                1.3814953670053183,
                0.13396192974147292,
                1.175570195455932,
                -0.14458191795693254,
                -0.13623475726510834,
                1.1173880347495755,
                -0.42503559317842443,
                -0.10110641643696716,
                -1.2816996008772434,
                0.1773329506637745,
                0.30634936970394283,
                -0.48410298116303624,
                -0.8771259981049826,
                -1.3046611337784353,
                0.591551871735258,
                0.2705848924689585,
                0.8188636385803887,
                -0.23823506350661436,
                0.0691185781551143,
                -1.516275848391699,
                -0.1895191264873856,
                -0.2625999680662468,
                -0.48415308081809544,
                0.23166886474624027,
                0.9275615595648327,
                -0.24634829510359116,
                -1.622472321724309,
                -1.2549074412418368,
                -0.3670735113536814,
                -1.0384758921551676
            ],
            [
                1.5178986066839693,
                -0.2505308092175306,
                1.0351318546652377,
                -0.7763566017242545,
                1.0569077847482207,
                0.873704590888551,
                0.7778189580796769,
                0.0054196129326464825,
                0.0172184250325682,
                1.1313555632247576,
                -2.080386201344189,
                1.3013362165628108,
                0.03670009770666559,
                0.7263707018668739,
                0.4182003471233409,
                -0.16035030075487838,
                1.590724577374773,
                -0.11079581405517501,
                0.8187854558203691,
                1.993686358895236,
                -0.2473609436931037,
                -0.5875023806751575,
                -0.9974642625415799,
                -0.7912823407139385,
                0.7696144229355146,
                -0.37410068217602693,
                0.13282701703215136,
                -0.0217961642236395,
                1.0501635130982117,
                2.146689774983376,
                1.3868788299166834,
                -0.4176074259191653,
                0.32801675928158097,
                1.1271767868033675,
                1.879945255834723,
                -0.669338128308233,
                -1.957981446952463,
                -0.1654863735728235,
                -2.649919851391432,
                -0.2002279463450878,
                1.2441906960863673,
                -0.15840127771330254,
                -0.8641732726668903,
                -0.061211141653992523,
                -0.35427479903333114,
                0.2689372789830544,
                1.1520841668486286,
                0.5894096130643376,
                -1.0522089231893024,
                -1.4574424645518496,
                1.0055985093971316,
                -1.456576946741168,
                -1.2243173697290153,
                -0.696248932856531,
                0.6835956241872105,
                0.44556908759497893,
                0.13714645310513682,
                -1.7052473923840517,
                0.1143227705698024,
                -0.4240421706043819,
                -0.32157519634875714,
                0.015318171330802925,
                -0.43608080759765966,
                0.08636107289366739,
                0.05237497296348943,
                -0.7939687161429982,
                -1.4807708998544302,
                0.8565919400069966,
                -1.6083133522963264,
                0.17279141783273297,
                0.7395158235543294,
                -0.2273073544033515,
                -1.3707177539861126,
                -0.8163954154257236,
                -1.1976934858011083,
                0.6291096294527149,
                -2.103786314205105,
                -0.7466272469257399,
                -0.22197813767221133,
                -1.285139051030412,
                -0.31895492462286895,
                0.5967827475063381,
                0.07026326137066692,
                -1.2101685008319927,
                0.28421955624321155,
                0.3351303573660814,
                -1.905228752395711,
                -0.16264686020627592,
                1.075623933388956,
                0.0383005392080923,
                -0.8008246933348931,
                1.1730580739144358,
                0.8414747418810989,
                -0.9071078312482291,
                0.7296028823615403,
                0.7292910193557222,
                -0.938145560993164,
                -1.116332468024945,
                0.08216816036421055,
                -0.28018477394475527,
                0.008954182761479544,
                -0.6123948669159202,
                0.31323089937513104,
                -0.8641991937021788,
                0.8743740594677814,
                -0.9805310870426104,
                -1.350609641474482,
                0.29469231960454845,
                1.3688198408705115,
                -0.17359682166616272,
                -0.9267524785371811,
                0.8575264605531049,
                -0.4871380185162597,
                -0.6159463483305551,
                2.045627699895819,
                0.4093766285934568,
                -0.8119430052574738,
                -0.5242770459103256,
                -0.45326251746286544,
                -1.5567518407785157,
                -0.510532365191937,
                -1.89524752899165,
                -1.469279171267295,
                -0.4236736535224993,
                -0.3379897819791145,
                0.7286149613151113,
                -1.8992910057626822,
                0.3182754240509832,
                0.37284217079889087,
                0.823009716312894,
                -0.2492852915474866,
                1.0495848177386526,
                -0.6523855701351888,
                0.6780780289262455,
                0.24264139926520645,
                -1.5500785272771853,
                1.0637229847720864,
                0.7576432832557745,
                -1.0910176399856435,
                0.5138352038864984,
                -0.8437992888823876,
                0.6623599297918616,
                0.23092060340833068,
                -1.5213908688802604,
                -1.49103923501619,
                1.264031259204964,
                0.005401733656149389,
                -1.027590023399414,
                0.12906065170366635,
                0.229033436355807,
                -0.13231127584373895,
                0.34261379020928423,
                1.0147885732821598,
                1.8360406452082445,
                0.006824490661412948,
                -0.042276403070579394,
                -1.2898523831520505,
                0.029009638537703324,
                -0.2732660633133902,
                -1.4112653824296566,
                0.6163011263843894,
                -0.015614381155209864,
                -0.5297716686187093,
                0.2742103465393645,
                1.6804172538652142,
                -0.3901876855253863,
                -0.9259349746145856,
                -0.2518947845794733,
                -0.716914062840853,
                1.4570119896108582,
                -1.6602983341768371,
                0.6553395768063249,
                1.008792163591708,
                -1.2492561418822576,
                0.2547685747304857,
                -0.06978475880752079,
                0.14449525512822703,
                -1.0902751958220505,
                -0.4532537824211071,
                0.5562355532213517,
                -0.6144525701678514,
                -3.3868119346447942,
                -0.2828726345990389,
                0.18970945241548942,
                1.0087497967476529,
                -0.7168232678034111,
                -0.13722490125240902,
                1.4449281919383206,
                -0.8825209242691092,
                0.851846829103837,
                -1.4610759656356505,
                -0.560353972948443,
                -0.6854317304247644,
                -1.0119915412509595,
                1.6188346511147524,
                -0.6644330698442331
            ],
            [
                -1.0331768872823597,
                0.48329319319133784,
                0.36574650390126356,
                -0.7699638125926752,
                3.27262836891015,
                0.9386643075135113,
                1.9145326463832792,
                -0.1180280962896877,
                -0.6491860879450424,
                -1.3608261469842853,
                0.926803942634862,
                -0.21956991328646436,
                -0.6689369710260314,
                1.124043679812066,
                0.5522427005595685,
                0.9995560196201358,
                0.33382342319256825,
                1.2242794561043648,
                2.696579732720655,
                0.6098276769825771,
                -1.2140934746262142,
                2.363364004246182,
                0.5602357714952584,
                0.9294509766699418,
                -0.9485231597570087,
                -1.7742180262843004,
                -0.189451033861168,
                -0.4717172462795756,
                -0.7368832094489858,
                -1.9734968944666162,
                1.223856970787879,
                0.4592490567487737,
                0.7144745631034283,
                -0.4863885391760152,
                -1.8400387856108253,
                1.533341786223006,
                -1.2174793866636229,
                -0.9560821183429427,
                -0.19828739387725713,
                -0.08965725124968188,
                -0.358134801436369,
                -1.005429796074846,
                0.4263680508422924,
                0.7683869242571002,
                -0.22815163297558214,
                1.2765835567046413,
                0.450691529902099,
                1.0042214688405535,
                -1.7294506175250985,
                0.022141254850422974,
                -1.1371250288338617,
                -1.6442094429207916,
                -1.3854263595096254,
                0.9649292586114558,
                -0.6303795573968717,
                1.417162037544999,
                -1.4241006596104027,
                1.052882854270332,
                1.0792918859414733,
                0.6242925486227664,
                0.5403277227464791,
                0.10091630482060858,
                -0.9599976294360574,
                0.1717698626221199,
                0.034950581665224426,
                -0.39601519734467655,
                0.3921128567617352,
                -1.2183404667790894,
                -0.6133579199182687,
                -0.8622597634570871,
                0.25141510923086113,
                -2.244765445627082,
                -0.336349422638548,
                1.3953615039109337,
                0.27355658759038654,
                0.07502203509105101,
                0.7804407933657167,
                0.2973917890985962,
                1.2126417274323515,
                1.102833703014165,
                1.0627477257892102,
                0.8540551835794931,
                -1.2829581006183053,
                1.8471938147908376,
                -0.30614040934213355,
                -0.17672443707729102,
                -1.5792079492066957,
                0.0545844181874807,
                -2.064733403890992,
                -1.1124363375392803,
                -0.721005750735034,
                -0.3228170159200793,
                -0.48490035574820833,
                -0.12589203396461565,
                -0.3543565970037171,
                -1.6518893522450036,
                0.3223232870018753,
                -0.46685943481443837,
                1.4875890596743127,
                -0.23337870313485312,
                -1.0539148655804649,
                0.4977832134166672,
                1.5190123507588102,
                -1.5897935933354852,
                0.680074907602494,
                -0.673699674598269,
                0.6247750427331701,
                -1.4234081236658038,
                -0.847574287283869,
                -2.113220910774054,
                0.08262156875052767,
                0.4429135197785267,
                1.523676039373361,
                0.21577540958171357,
                0.682119216792601,
                -1.726856297682282,
                -0.09369815922977323,
                0.6297172291343054,
                -0.7143202366239578,
                -0.8907355658496088,
                -0.5779374776660964,
                0.015028290164966575,
                0.22595918389873995,
                0.6672660601723831,
                -1.1212708923198675,
                0.14286156002096517,
                0.3146647635230519,
                -0.8103711897606125,
                -0.19219910801810725,
                1.4694373096701618,
                -0.5817245920969182,
                0.9707602914248519,
                -0.8382571275746263,
                0.5752798695878562,
                -1.2935228867069342,
                1.6667512710801167,
                -0.1984153254632314,
                0.6979910002707407,
                -0.37197984859791755,
                0.4772647681483614,
                2.3591174633580616,
                0.8964734457033803,
                0.7848514030287423,
                -0.2762296666875124,
                0.3324507563246348,
                1.24154841411017,
                -1.3020080330743313,
                0.8890093175184519,
                0.6046579872043133,
                -0.5493112959729843,
                -0.05636066300066268,
                -1.6203389062197302,
                -0.14668722901981673,
                -0.6626416863450757,
                0.3604550961740585,
                0.9716688509589889,
                0.00883306039451907,
                0.06278200477021395,
                0.2814863455255089,
                0.678383143613004,
                1.7997556556831573,
                1.5586368270283901,
                -1.6584857932517727,
                1.613305441597065,
                1.2175484086261166,
                0.6691570340063181,
                -1.8808813046586026,
                -0.6619561195903908,
                -0.650273553919864,
                1.5312011229462876,
                -2.4639210974629226,
                0.23356744731723736,
                1.2632340637806716,
                1.8598343112709976,
                -0.43637917306630725,
                1.4471900122727341,
                -1.7064479176699794,
                -0.36982327664542414,
                0.16214742385410952,
                -0.3507024113266123,
                -0.22172553361127703,
                -0.09543269932346397,
                0.5250495182493885,
                1.026560485965167,
                -0.8776228722277829,
                1.5656204611106215,
                -0.8068438129920426,
                -0.5337100353786685,
                -0.7224724418427787,
                1.6563032469534353,
                -0.7252409404208544,
                -0.1679558908250754,
                0.8924834046927106,
                -0.7362932020943658,
                1.9817198174252606,
                -1.3086523445112677
            ],
            [
                0.20710997570412082,
                -0.8878829398078447,
                -0.5355774995834897,
                -0.18913610637513825,
                1.9273535102095654,
                -0.7932129765532312,
                -0.8279411751502087,
                -0.43165837509750676,
                0.9924118208346255,
                -0.530403469234841,
                1.504029527551136,
                -0.4948209886964103,
                -0.5802878807591372,
                0.2585843376282556,
                0.5644596839482297,
                0.244533937014443,
                -1.776589760500187,
                -0.7448186412173408,
                0.7897766690377593,
                0.7824192033032206,
                -0.39083882254731045,
                -0.6371359530387746,
                0.3108315224458625,
                -2.0341133308975365,
                -0.6536426924365667,
                1.2780712394775928,
                -0.2296219009133445,
                0.7917168311907574,
                0.7325797194171811,
                -1.1911479073470772,
                -0.4933217331549429,
                -0.8407849599825684,
                -0.8048452215884283,
                1.9187722970856906,
                0.4090538812287419,
                0.4046611211442338,
                -1.0897594820398724,
                0.279635494882745,
                0.5343603115734823,
                0.35391120460056236,
                0.41207695272906514,
                -1.1398845232752666,
                0.45388937970818505,
                -1.1595273714071164,
                0.9845820797687685,
                -1.2464111965901261,
                0.5388032809288568,
                0.664186152792702,
                -0.547942249913411,
                0.7241242956911579,
                0.43491675824184095,
                1.6773277136252882,
                0.06987152133537634,
                -0.4057470951648228,
                -0.8730231289486279,
                -0.1578507821433846,
                0.003712712426629986,
                1.9657373838949792,
                1.0005221526904937,
                -0.2772059781518002,
                0.3370064317714554,
                -1.238913885433688,
                1.1243913785522992,
                0.678736987390425,
                1.6976140852373203,
                -0.04045727906985336,
                0.38679913612458006,
                -2.300093307707111,
                0.8909453479697979,
                0.3663715183397148,
                -0.18555440018047134,
                1.928834327284597,
                0.27972079848370157,
                0.14019598349359724,
                -1.366864054760132,
                -0.3118884422496074,
                1.0232680745870988,
                -1.7014901448399145,
                -0.0878961163469498,
                1.036708024807161,
                -0.7026195325662923,
                0.6586817216890092,
                -1.0568384349850233,
                0.23605457125382787,
                -1.9658781956367035,
                0.20974245500850738,
                0.3768372049413655,
                1.0306181209153238,
                1.1371090593665245,
                0.28250722573931797,
                0.05708547975420738,
                -0.002453887392479718,
                -1.4098479963649988,
                -0.3184565815067057,
                -0.21558624500362933,
                -0.33462903959925605,
                0.05790541659409008,
                -1.023221690484528,
                -1.883788913041039,
                0.6381359705395786,
                -1.2672119102916561,
                1.377306889254802,
                1.1402772662332135,
                -1.1794616839715264,
                0.4590715186382574,
                -1.0044462867482011,
                0.2756511448692935,
                2.681984949858802,
                -0.38708109976833016,
                1.6149680663664,
                -1.139318770352933,
                -0.1170240262168671,
                0.5587437006805849,
                1.2909680163732862,
                -1.6559669945466666,
                0.8292598380640264,
                -0.7604220782516401,
                -0.9516330692980609,
                -0.7079404589923056,
                0.47114432252363375,
                0.6694509012500394,
                0.6910854486757336,
                1.2450896806127614,
                -0.17965872943530342,
                -0.3073777859241706,
                -0.929567590998726,
                0.11710912907836467,
                1.496128739521447,
                0.7294611381879796,
                0.81801574935976,
                -0.013622793423550812,
                1.4261809778875774,
                0.8228873139912894,
                0.5253922497941025,
                -0.8964044569271614,
                -0.08383945084836118,
                -0.4220185577196765,
                0.7393059251464263,
                0.38893535627447495,
                -0.4727030781371345,
                0.3262675664917875,
                -0.9412301690426621,
                0.2662916622419759,
                0.5743375428940645,
                0.010480492937080201,
                0.8452914108022523,
                0.7406654841855423,
                0.13491664088009,
                1.2257419009133175,
                0.7737805154592347,
                -0.5770661611114385,
                0.2841978088485044,
                1.0602721221938598,
                -1.875608998008323,
                0.18656539619915613,
                -0.1979341431028391,
                -0.13716150556123408,
                1.6244591178434302,
                0.9827202182448933,
                2.259522313361938,
                -0.8999859196147504,
                -0.43519917208326936,
                1.1309390122484126,
                0.6653485667955198,
                -0.1734186838266617,
                -0.3429596246517762,
                -0.33532811240086374,
                1.0118557541789917,
                1.106525668825744,
                -0.9640756965415657,
                0.15674648240718525,
                -0.3793465810405947,
                0.09628266391559132,
                -1.486119517816869,
                0.5879855070922894,
                0.15655738709748188,
                -1.7350157711986225,
                0.9572285464757844,
                -0.13560505048005528,
                1.4551461167991335,
                0.6923528742624215,
                1.7020335817945975,
                -0.2550269868237834,
                1.0016072024331593,
                -0.8021545112840857,
                1.826285795128206,
                -1.2334142993607156,
                -0.8192659591973179,
                -0.24217773976162346,
                -1.0440790007801493,
                -1.8024889563234792,
                1.6918599548496895,
                -1.9629245857899285,
                -0.9263471704130561,
                0.35431980085351744,
                0.5032860551909375
            ],
            [
                1.5090107487809226,
                1.3180712278954292,
                -1.9083736986249378,
                -1.0981137458242825,
                -0.5700436140957957,
                -0.3537225992595514,
                -0.24157191290464222,
                -0.7237014693403201,
                -0.37655186037624294,
                0.434774690958338,
                -0.42017594160342353,
                1.7673480556629146,
                0.4556629689350998,
                0.3466203736810775,
                -0.8204558147948322,
                -1.2537777774101422,
                1.053205388944304,
                0.7199522190364275,
                0.16657687311128763,
                -0.16820543033656982,
                0.22176153801390064,
                1.4903107970930956,
                0.25017532584337904,
                -0.048629473092645766,
                0.4710456928503206,
                0.8450664082662835,
                1.1897594397838007,
                -0.23969741741274408,
                1.5678036845106031,
                1.555846161349335,
                1.3809596877011232,
                0.4954094289201022,
                0.5049773247531519,
                -0.6177697790844031,
                0.5401840038949728,
                -0.775421362916498,
                -0.39800055599644085,
                -0.7279417521480709,
                0.25545714666843883,
                -0.8118898788465373,
                -0.34818308582959706,
                0.7900818690122411,
                -0.174187272878034,
                -1.320701466253269,
                0.5594240988342888,
                -0.06111549643329673,
                1.4865036535305975,
                0.1381451536650448,
                0.7914469283056911,
                -0.17073874321360383,
                -1.4759231396411134,
                0.26123739349006686,
                -0.7713228828994126,
                -0.1451573476551089,
                -1.8235756286267795,
                0.523142668022897,
                -1.184821342910615,
                0.27753707993041526,
                -2.2594449262311946,
                0.36821917145061667,
                -1.647114577407468,
                0.2250163700976673,
                0.4584251808338338,
                0.03652248739263392,
                0.7169713719707119,
                -0.6767209848620815,
                1.1664832194648669,
                0.4522665504791087,
                1.1879363516614656,
                1.1386401485234117,
                -0.0073382378072538584,
                -1.263984765741606,
                1.406173985535124,
                0.5638023907736571,
                0.35393200553600074,
                0.024644991639237654,
                0.32283224365352076,
                0.272385411796337,
                0.30508705680217574,
                0.7943647754778045,
                0.8195547968814582,
                0.1923132848816843,
                0.8663798272447091,
                2.1448309733978412,
                -1.5720495809711703,
                1.1141728006455824,
                0.38072106955246554,
                -0.6396868738423181,
                0.1578854532093392,
                0.3117394993421321,
                0.08086203918897324,
                -1.3091667409135763,
                1.5089392175029963,
                1.7188497923390063,
                0.4096802211577027,
                -0.1218750245289293,
                -0.41795830010138246,
                0.6887214454113113,
                -0.8789708926291239,
                -0.47182415052778964,
                -0.6041688446311639,
                -0.4612198998944865,
                0.8764610338705919,
                0.09431158551566497,
                -0.06909605220776874,
                -0.27281476481154104,
                -0.4043583606457768,
                -0.09892501482576546,
                -0.5081947059136621,
                -2.9740617116676464,
                -0.06564712856807683,
                -0.5546093828498401,
                -1.1241775792984914,
                0.24060093560932022,
                -0.4029077024219867,
                0.65436860303949,
                -0.7889930269026219,
                1.1600954967760588,
                -1.4121883243637154,
                0.6715291258973967,
                0.3259382471657429,
                -0.1421643121502873,
                -0.9044144300422176,
                0.49372572234729234,
                0.3516385222129314,
                0.8111211896464116,
                -1.41730245443011,
                -1.513445927229802,
                0.9050205556155474,
                -2.4483377410466014,
                -1.3975851317288792,
                0.0011278958062927895,
                -0.20444269706952653,
                0.2804498505433714,
                -0.9079878857855567,
                -0.6696356322688092,
                -0.2846132129926444,
                0.3138417471431429,
                0.6624664693297321,
                -0.11640864725099344,
                -1.3830215072910368,
                -0.17461486532834009,
                -0.0393085523375498,
                0.9975259278475629,
                -0.04007703802919662,
                -0.7645029885896577,
                1.566272430095468,
                0.6307386510272733,
                0.5484464203174001,
                -0.5847019681162045,
                0.6824697001684591,
                0.6122297011702641,
                1.7722796184546217,
                1.4042488098540467,
                0.3758935604086624,
                0.3204670702304843,
                -1.2339965666702462,
                -0.34427170944515684,
                0.5382020166372534,
                -0.4038381259587659,
                -0.5506242692703476,
                -0.2538497408321926,
                -0.8240880134926516,
                -0.1676893024709233,
                0.6870088290344947,
                1.2566352734959978,
                -0.08262872139719629,
                0.3279269564269351,
                -0.8312588310096528,
                0.23380984192879042,
                0.21717508300222865,
                -0.22931927916646055,
                -1.300990209191602,
                -0.08793094709498121,
                -0.5049070212501505,
                -0.2439763832935947,
                0.17710792170953318,
                3.3879667349283444,
                1.8403902944909991,
                0.6401155148343529,
                -0.7931190067711966,
                -0.08297827146042511,
                0.2902045391380838,
                -0.3957884597107312,
                0.022935365553253206,
                -2.016123408265255,
                0.9772385675619853,
                -0.6901842966306665,
                1.5538941627582423,
                0.19746820250308272,
                0.40812052768777846,
                -0.8087088686227828,
                -0.16260722116620616,
                0.07013911350856276,
                -0.9694953146944746,
                1.0281657023826658
            ],
            [
                1.8714174204378469,
                -1.0006271591112548,
                0.6346905451201695,
                0.08398981237530148,
                -0.33185971211849374,
                0.03332010270175708,
                0.02046024038253907,
                -1.3437858131685099,
                0.4481345724984231,
                0.27128499443240023,
                -0.01828788278271028,
                0.31905141245290036,
                -0.031076013653052993,
                -1.4735537590027374,
                -0.8430509708050585,
                0.756470679454045,
                0.5076850800472509,
                0.6854596967254882,
                -0.022823430011407474,
                0.8521234800909853,
                0.22936558776769053,
                -0.2719820385213491,
                -0.4846456586069338,
                1.4391548751757257,
                -0.28176528693321096,
                -1.0343677480788729,
                1.3479374837550069,
                -1.2288838530023263,
                1.2768100962604,
                -0.7363471519167104,
                0.4508599384034812,
                -0.12520469350335203,
                -0.16014372721048156,
                -1.8921095086029993,
                0.4003103408377012,
                -0.8596875266506158,
                -0.42085477409987093,
                0.18142312370249208,
                1.2849661294787798,
                0.8755059457936686,
                0.5492248191263067,
                0.591407458770562,
                -1.5270167035151367,
                0.03944771302472012,
                1.6825080975250455,
                -0.3698193044705965,
                -1.02407838941213,
                -0.7631457143480631,
                0.7229975634868036,
                -1.8718253393196544,
                -0.23359652041251594,
                1.2338926548476634,
                -1.218858050221079,
                -1.0677797806460636,
                -0.2634561939855941,
                2.0882476371866394,
                -0.9101220619680923,
                0.1472366832580893,
                0.0630787022009577,
                0.4074882048753791,
                1.3997975806116332,
                0.19174874701290961,
                -1.6483631695855245,
                0.07076689176853801,
                -0.7911952024179405,
                -0.8459196595713808,
                -0.44798593195148195,
                0.7117337857353241,
                -0.50414295835857,
                0.5951114482029287,
                0.48125252915510613,
                -2.7404776965068787,
                -0.8600145823571642,
                0.6329575385907751,
                0.7638707174293587,
                2.7205959454836686,
                -1.2153165978225036,
                0.3355905715359821,
                -0.7844341748597795,
                -0.4212895388261465,
                0.5438728225658496,
                -1.9516358204421609,
                -1.8661744525135615,
                0.16779129893246697,
                -0.0193785594487286,
                -0.9764476639071733,
                -1.428846891283209,
                -0.4424905299089645,
                0.1392241238775214,
                0.8695081001398685,
                -0.4009073891920743,
                -0.843066743197643,
                1.7081162968796773,
                1.9618936555977198,
                1.305161122322668,
                1.2652339378196575,
                0.2517863381450423,
                1.4239808784981847,
                0.438111814722277,
                2.109402960088014,
                0.3605426351067877,
                -1.6260057302792168,
                1.0144295884844883,
                -1.1528486461344354,
                2.172979981144578,
                0.07384011128006612,
                -0.569785926083511,
                0.40779768470072353,
                1.1766082683366612,
                0.050453535950624115,
                -1.3672995955722766,
                -0.008789199130709982,
                0.34904711782458026,
                -0.6220497808769718,
                -1.3075681166059097,
                -1.153545702845396,
                -0.6118878232660281,
                2.1675433948455787,
                -0.7109294980220028,
                0.06301698846971514,
                1.1123105681886643,
                -0.28856036493593235,
                -0.0764213542245083,
                -0.5903341652128037,
                -0.9926422788901601,
                0.5288268240829997,
                0.013539553853371654,
                1.854957313005052,
                -0.6688986266237809,
                -0.17154803741716826,
                -0.30739992514536396,
                0.24307912371314427,
                -1.0832060904777532,
                0.05874479625053443,
                0.4768206733760561,
                -0.029360981967686543,
                -0.9810853335634242,
                0.5583372926646617,
                0.1398744529087675,
                1.3654284789961755,
                -0.26385655803224023,
                1.2132847075481819,
                0.13735621952890384,
                -0.5272333731040524,
                -0.9598116331228641,
                0.05465103030364902,
                -1.7841245351122856,
                -0.2358051032763048,
                0.43953442081370403,
                1.5293902204099552,
                -1.10712230673006,
                -0.1647650691891602,
                1.9234278237090239,
                -0.5894710714710495,
                -1.1434502229426033,
                -0.10059205564925787,
                -0.528473574893611,
                -0.5863098209978431,
                -0.8012731994132422,
                -0.5181162127444559,
                -1.500474831521824,
                -0.2612053736252073,
                0.46083148549779945,
                0.09980163107420706,
                -1.7016228305571042,
                1.7700703208484108,
                0.37487569164124307,
                -0.8423697854459009,
                -0.8505524513512156,
                -0.3529953918371831,
                -0.7684344185483535,
                -1.3199363787866447,
                -1.2624741377377273,
                0.03217721067047649,
                0.905346401180711,
                1.5204678191437402,
                -1.7912735373475215,
                0.4410167948028872,
                0.966313921804301,
                1.870504256429786,
                0.7267260937570242,
                0.9851597193763086,
                0.6817696151390474,
                -0.6959684953454045,
                -0.8532338267272277,
                -1.36258071068302,
                -2.22791422459522,
                1.1053126844993326,
                -0.24000710493054955,
                -1.6742371368699427,
                0.9807953638878827,
                0.9696727172428635,
                0.8241266830567839,
                -0.5388748405879241,
                -0.30382122776528286,
                1.5695686780082454
            ],
            [
                -2.3441647810544066,
                1.4284563424988128,
                2.868274396474228,
                2.7802795018578372,
                2.2150458513568454,
                0.6922521779884254,
                -2.8564892173673915,
                0.35285167873500034,
                0.9059264491410257,
                -0.3571888150081492,
                -0.22223272059534155,
                2.3447872073283107,
                -0.22292099943808127,
                -1.1395452941930677,
                -1.9139557142987844,
                0.22811996068634185,
                -0.1875215400012004,
                1.9091579922025153,
                -1.7670972107025948,
                -1.5545772440117722,
                0.8409279180709784,
                -1.2852218985906336,
                0.717749640752666,
                0.6809943708207306,
                1.3733538169464925,
                -0.8280836519531046,
                -0.12058054563949974,
                0.5376779652626751,
                -0.46527331090118546,
                -1.4695581189742397,
                -1.0516281718036016,
                -0.048141511849934204,
                -0.9412477588573599,
                0.07324827547563031,
                0.3503313485515505,
                -0.7212618697221131,
                -0.5056900023126899,
                -0.045552903624749,
                0.7670066259079541,
                -0.14560497060719232,
                -1.49461717190974,
                0.11109879263292605,
                1.6541787356632853,
                -0.056576170291310346,
                1.2552544751523658,
                0.8640611462074798,
                0.678837809570006,
                -2.128271034839095,
                -0.13101053344056446,
                -0.14101424782709873,
                0.16926002908635152,
                0.9084979043168662,
                3.1688839343656263,
                0.046574181959430326,
                -1.4534469707928133,
                -0.9041896890302488,
                -0.7627398511960017,
                -0.7908706436958511,
                0.2602510765731094,
                -1.4997978114346278,
                0.8876821365548608,
                1.4389207315616788,
                0.055240897350611565,
                0.5410721577360325,
                -2.0461544761251234,
                0.09476619221594154,
                1.076066985215206,
                1.583840159167275,
                0.3353684151189595,
                -0.9064886099599246,
                -0.4991080464800537,
                0.626082472053879,
                0.3269161094740214,
                1.5269266049190628,
                -1.01826818101161,
                0.24535322154240416,
                0.22295319639932784,
                -1.6541836839432194,
                -1.9653954653295918,
                0.398348873708751,
                -0.8537236573016312,
                0.22076760649272312,
                -2.969418318593969,
                -0.37922990050470634,
                -0.6325807845888815,
                -0.721903251407531,
                -0.5926628065876889,
                -0.5822458966680104,
                -0.7906482831948459,
                0.8478507116386775,
                -0.726449365252652,
                -0.5719386230220849,
                0.6081107767562098,
                -1.5877664125698923,
                0.23180290060880487,
                -1.1163958300994785,
                0.06136466161408481,
                1.613930788568197,
                -0.15306191899992316,
                -0.9496407424468252,
                -0.815287718770774,
                1.11966026630199,
                -0.44330812364106403,
                0.9623525365594787,
                1.2670324459589186,
                -1.3689994973798796,
                0.0765700030534622,
                0.040355442926204986,
                -1.040565133375015,
                0.9681128973054707,
                -0.6704855864004594,
                1.2699968737970424,
                1.1705732403960187,
                1.4225329568871854,
                -0.11388180724720237,
                1.1117494193663948,
                -0.802082142766964,
                -1.7180126760088301,
                0.5428835220336434,
                1.4908433176893718,
                1.401821335503968,
                0.6417334236964589,
                1.1029579529735203,
                0.5362948713078868,
                0.8705587949051901,
                1.1632790468537368,
                0.663066563400311,
                -0.14708485570253785,
                -0.7343988961108542,
                -1.1166544310991442,
                0.47659049547340154,
                -0.48362804851555213,
                0.0550464449327573,
                -0.9049093733399067,
                -0.4536488796909509,
                0.10088293991895621,
                0.008018708206466489,
                -0.6645709355983149,
                -0.38582898645450053,
                -0.7651059595298052,
                -0.43351501817706717,
                1.5084243428598252,
                0.9711388292009743,
                0.23282092531366896,
                -0.032834250199288366,
                -0.09994746020804082,
                0.6463256024095996,
                1.3016746366719596,
                0.28809323102223544,
                1.2103370118259482,
                -0.6498892046422641,
                -0.7409697282740765,
                1.022171866234229,
                -0.767360914674066,
                -1.3990098214101394,
                0.23270951671478887,
                -0.07571265441485525,
                1.1466318505662503,
                -0.2724340614061638,
                -0.4698846232420427,
                -1.3347010416343765,
                -2.190814202918924,
                -1.6747983299767142,
                0.10057687155666249,
                -0.6745376331069262,
                0.4101859359963297,
                -0.016445000845692323,
                -1.6003997865452386,
                -0.1263848381731977,
                -0.20512434311559033,
                -0.16385528821141973,
                -0.05180979973112509,
                -0.29213032927282945,
                1.3452336133459457,
                0.33989606284818513,
                -1.137306120503349,
                0.10835893093251554,
                1.7300099331777226,
                -0.5304384318401546,
                -0.705065381057542,
                0.9247729524285313,
                -0.6857951422045,
                1.250493368391569,
                0.354759338931016,
                -1.2501545490055006,
                0.559700902954741,
                -0.35672407049010846,
                -0.661929313778836,
                0.18811433067072345,
                0.05071220954575874,
                2.465011628698893,
                1.3150285673990862,
                -0.814360166749659,
                -0.76179420600845,
                0.7167158930813502,
                1.7165802060797495
            ],
            [
                -1.1878807966914493,
                0.42260410424946504,
                -0.047246994672378945,
                -0.7722175717386295,
                -0.5419691860791308,
                1.0167363998720664,
                1.3032031250736138,
                1.1863807832691793,
                -0.4021910279265457,
                -0.9760898574067564,
                -0.35678192904710515,
                -0.6027475445092798,
                1.2429593348220862,
                0.35839240250177146,
                -0.3924712969954573,
                0.4877588057698039,
                1.8522314851764385,
                -1.2971804797312785,
                0.48733591637533413,
                0.3084792706327676,
                -1.0873393085834608,
                -1.0707697965761263,
                1.1450826938140897,
                0.012038225825123029,
                1.0729546566226131,
                -0.44519083789512665,
                -0.5008807550622186,
                1.6191953297615302,
                -0.7447386133554894,
                -1.3322558069897221,
                -1.6963217645225557,
                0.2946289454739359,
                -1.7372063616913702,
                0.06568832312671707,
                0.7401754363324159,
                0.954939883863922,
                0.569665383830248,
                -0.3493612645850675,
                -0.9667729843734156,
                -0.008618301548364836,
                0.6378334828727449,
                -2.9081922684661423,
                1.445306050602197,
                0.8512837957526332,
                -1.067362913806851,
                -1.105767407074247,
                0.9401379236611677,
                -0.7367138497258443,
                1.3824148262715297,
                0.026616072365708395,
                0.40460487365048386,
                0.44519104776334917,
                -0.5766184356018992,
                0.7211585848999573,
                -0.3186371581828133,
                -0.35853711431738644,
                -0.8355999992490343,
                0.9128558688349809,
                -0.5870265174844441,
                2.8115085474266976,
                -0.0682818817851342,
                -0.1737496185190056,
                -0.013189118941867235,
                -0.9941041906005393,
                -1.1921019710271545,
                0.6151637276314876,
                -1.7826258473460397,
                0.6136692038603948,
                0.0995736421218871,
                -1.0115012637839649,
                0.5568656116303716,
                -0.24777467926936345,
                0.12088353978932119,
                -0.35912036232825606,
                -0.503957271745815,
                0.3257018233415746,
                -0.034876987724415116,
                -0.519227672432005,
                0.33480328623485917,
                0.9486557672612466,
                -2.2674905594684587,
                -0.7339115493836718,
                -0.8633589400611928,
                0.8962127552471528,
                1.0113463798418048,
                0.987124392879935,
                0.19502207183824855,
                -0.4520030479893617,
                0.6064166252005888,
                1.5361709389655116,
                1.804370819726292,
                0.910166393110009,
                -1.5153558625830517,
                -0.5989636364457933,
                0.5081771377253075,
                -0.9961983731647291,
                0.2485834508275934,
                -2.4191827490794506,
                1.559091107389323,
                -0.6752684713739401,
                2.0980089417659658,
                0.5838982997699069,
                0.23410694105334962,
                2.382638256872728,
                0.8950890540541028,
                2.3879991414999675,
                0.2692755641743688,
                -0.77091409655276,
                0.7566536720542864,
                -0.5649131813782073,
                0.2823135203833481,
                -0.7879361383882076,
                0.4784282664659899,
                1.37427458177683,
                -1.8835129105959434,
                0.5112396729704526,
                0.5797933160675729,
                -2.0885276890206286,
                -1.5273197025240246,
                -0.5227325454291564,
                -0.24622099398124322,
                3.034088936108727,
                -2.516927231761546,
                -1.6982036702606744,
                -0.819054445006659,
                -0.018179860754944988,
                0.8117844950779906,
                -0.053164011559662015,
                0.13699550403433136,
                -0.30672804887919086,
                0.6262378317759205,
                -0.5454150037720811,
                0.008150045890181631,
                -0.49240246348227973,
                -0.6459795467430909,
                0.8443378145335246,
                1.986703163232019,
                -0.1310008413512781,
                -1.3703446192732254,
                0.8347705752624237,
                -0.7617425056964365,
                1.627133911073996,
                -0.4331668771371095,
                -1.8317077805678121,
                0.3454856652480164,
                -0.48178572354120647,
                0.17999707993395753,
                -1.0800646971159429,
                -2.252593795329649,
                -0.7012186961115684,
                1.2908433315491976,
                -0.14072286803655173,
                1.9257247919741158,
                -0.3897339125435562,
                0.06497764595784836,
                0.005254598590962449,
                0.7749849175455362,
                0.4157890221821905,
                1.6084653484889269,
                0.8600001286520003,
                1.3600645576789774,
                -1.0417908672829754,
                0.3011539463167581,
                0.6257395234261022,
                0.02764474048433509,
                1.772528653234656,
                -0.08895903622693845,
                0.055151430625979964,
                -0.1458342412326433,
                0.46497927005372897,
                -1.6066740384079414,
                1.2215144695380031,
                -0.24875293211622507,
                0.07775978180777121,
                1.8458721338600843,
                0.16463962840815782,
                -1.061289292701097,
                -1.2903856383698191,
                -0.7325106933384296,
                0.5004448860323483,
                0.394973756286156,
                0.2908074895844284,
                -0.42580266895666447,
                0.45117319564385683,
                -0.391856824978036,
                0.866467198937893,
                0.935556348995545,
                -0.9635646393932836,
                -0.4864699949200146,
                -0.2864375371389138,
                0.6873621827361472,
                1.525376171996146,
                -0.9081990442429798,
                1.3002874675177345,
                -0.991275772033705,
                2.4878608383619687
            ],
            [
                -0.032452317694435184,
                -0.2047265428163745,
                -0.20297093673572417,
                0.0319779496967738,
                -0.004636050305235516,
                -0.015248940863632699,
                -1.6569334894191017,
                0.2849836165540028,
                -0.03668126847193351,
                0.7682239861779666,
                0.020600895990766185,
                0.22191579451048632,
                0.6066130608234236,
                1.3238213447914644,
                -0.7145151706098474,
                0.31333478289507166,
                0.8604664575942159,
                0.2873204584207446,
                2.3780732468607586,
                -0.9961325359229307,
                -0.8635681175236656,
                1.447952806537498,
                -0.34430252935020933,
                -2.1429440159163002,
                2.4733926156303077,
                -0.31119971764477117,
                -1.6226708488514685,
                0.29554929313420053,
                0.8143565211705152,
                -0.6908298879727146,
                -0.4649092763143524,
                0.01838007797219458,
                1.0171578522614886,
                -0.7555502578673136,
                0.08783806230403976,
                -0.6618429268256744,
                0.7585046843030467,
                -0.6381830211389643,
                -1.9633997711795692,
                0.38014815667327073,
                0.944918098430367,
                0.5057912418508372,
                0.20255613981108136,
                0.7502471304886066,
                -0.07278871837139693,
                -0.1261741147884912,
                1.1187291415016358,
                -0.9933113451407986,
                -0.41692394046500647,
                -0.2712992979117049,
                -0.9931222928105891,
                -1.2610202164276054,
                -0.7586281116372093,
                0.015672339743009703,
                1.4170083874971344,
                -0.0640387755130852,
                0.9361622355541539,
                -2.3518212363183806,
                1.3844578076638592,
                -0.5654966910557447,
                -0.5183731136063692,
                -1.8143520014721026,
                -0.6040981058476309,
                0.19843158975297945,
                -1.182686993915079,
                0.84388047060183,
                0.5169433425619211,
                -1.3406946690206554,
                0.8629996693213884,
                0.13424622453555918,
                1.0580792323830854,
                -0.7649449903861504,
                -1.1559194846697611,
                -0.01820437013465939,
                2.0032075299329604,
                -0.10149095907899582,
                -2.3239035338176515,
                -0.8398185123025789,
                1.077793364177797,
                -1.7820830111490793,
                0.1847037983434927,
                0.20837608582231643,
                -0.8448316466042566,
                0.9753952400918482,
                -1.7322730154240558,
                0.7054810043668888,
                -0.39554581199364475,
                -0.7765918031025209,
                -0.1305196034685735,
                1.844907114541957,
                1.2233199913846378,
                0.3941883977790727,
                -0.0726309600056334,
                -1.9799668358475704,
                -0.11201410532662437,
                -0.7009413986197017,
                -0.393397566588792,
                1.7412565296475693,
                -1.3040240956630953,
                -0.03562776782879611,
                -0.9513290741678821,
                0.6414017139475853,
                -0.11861426574200336,
                0.7156561196613019,
                1.239723086076299,
                -0.21120252409306883,
                0.2777555598285746,
                -0.2586296587138686,
                0.3678271540691947,
                -0.7240341595820543,
                -1.6571296075004904,
                -0.5375229303376152,
                0.3413731097774286,
                1.799568726326336,
                1.4429024128603867,
                -1.356238183134791,
                0.2376026517556727,
                0.15288243834833223,
                1.1041374692188892,
                0.26433474893451425,
                -0.41853553034430796,
                -0.9439672591064089,
                0.7950887044335377,
                0.49401081289353194,
                -0.21447846456478856,
                -0.9992810498719142,
                1.0270465457977511,
                1.862147500997317,
                -1.0707000488601666,
                -0.8581559603993169,
                1.1358023300289664,
                -3.691221908827938,
                -0.037426666238732524,
                0.8016893304031737,
                -0.4256341475964504,
                -1.7576650234913134,
                0.6920037398063714,
                -0.5908651001562727,
                -0.12281070057948207,
                -0.6529438963595912,
                0.35707738632828534,
                -1.5946585557425141,
                0.6454464447115684,
                0.9003027875413612,
                -0.5404622658314547,
                -1.1080515547860046,
                0.38798809834783204,
                1.2859575047795304,
                -0.40182394322516835,
                -0.07485165667978334,
                1.5043174058455815,
                0.9253968668391565,
                -0.27329099308044436,
                -0.8263451953382942,
                1.4083747954062045,
                0.6661723570973526,
                1.19274706539744,
                0.5684624315673261,
                -0.21074159819920624,
                0.6245275880856251,
                -0.9501760420265349,
                -0.8702411353811152,
                0.12962562348271747,
                0.4656485005440052,
                0.8853205882770667,
                0.08118630046429234,
                1.17854359979206,
                0.9288288821565029,
                0.014715807410275823,
                0.22217199285707256,
                -0.5705989925126783,
                0.4536898035679669,
                -0.005893488676423603,
                1.055103870666097,
                -0.3347390138227249,
                0.9264790371881103,
                0.5772907171323592,
                0.5501809291899077,
                0.37591667089711367,
                -0.8991428010107726,
                0.15857994757371316,
                0.0996165550821996,
                1.1133411013077616,
                0.46203791832280333,
                -0.5558187299160555,
                0.4840237795570611,
                0.3200236266195901,
                1.1060040775616786,
                -0.9654319676832759,
                -0.7245494081544532,
                0.3757532857626421,
                -0.16619817922199323,
                0.3277817351522303,
                0.8603113107987191,
                0.10166181389318633,
                -0.12279030362385687
            ],
            [
                -0.7094822047100605,
                -0.33571232228417014,
                -0.5902207686730889,
                0.43433050053630906,
                0.467260761952348,
                -0.20861274036702404,
                -0.5332583056469009,
                1.9048509557436724,
                -0.03182681741079299,
                -0.39834618782909054,
                -0.14712401668683558,
                -0.5498603855429165,
                -1.2111172000313224,
                0.7020445943213868,
                -1.0137606810994644,
                0.47172413695619436,
                -0.5778635205513393,
                1.9077450799318858,
                -0.920808232214834,
                0.23178542640240477,
                -0.37118944404295806,
                0.07693344510396351,
                -0.6122801660484549,
                0.3282972502639168,
                0.29546818140845016,
                1.3509838388739241,
                -0.02120044058357704,
                -0.30536327813103037,
                -0.7959978947694296,
                -0.5443736430656838,
                0.6799730841803305,
                0.7191031668036887,
                -0.14683189529789456,
                -0.4591022313445177,
                0.7712939398954233,
                0.407814561246977,
                -0.14718306899514585,
                -0.5796012413342829,
                -0.685402393038983,
                -0.6406120614594948,
                1.4559214248556596,
                0.8338571408269444,
                0.49134775274658443,
                -0.9546106706964116,
                -0.13062909258420202,
                -0.42422628587506,
                2.3418038769870186,
                -0.10579589130102668,
                0.3239151688133697,
                0.7249221248850708,
                -0.5288675607687755,
                -0.3180144515023317,
                1.4517752115569091,
                -0.6369771038105987,
                -0.7938656580889027,
                1.8156800101643702,
                -0.09765018098095071,
                -0.5731069403617228,
                1.398328530395198,
                -2.1829203066898977,
                -1.1237583616410418,
                -2.810828945577537,
                0.17223503898238696,
                -0.47915805146518425,
                0.36725457066639866,
                -1.5850998327867796,
                -2.1962218518248755,
                0.16193764714805453,
                -0.4419436903661301,
                -1.3537505348950973,
                -0.27297287161296424,
                -0.5767000812413069,
                0.02946961768925709,
                0.33122787836404965,
                0.47541990201605083,
                -1.1932306978775822,
                2.132346174567959,
                -1.0078981567258882,
                0.5895893851305088,
                1.3626947949188215,
                -0.726356043622731,
                0.14851485006609338,
                0.7555146858542222,
                -1.3115165156246191,
                -0.9393748915548275,
                -0.561302207291068,
                -0.9697726546740397,
                -0.5042446837918103,
                1.313826358864209,
                0.13119020863219993,
                0.3837475264426324,
                0.6015317334628788,
                0.4251478836071487,
                2.3463372316767246,
                1.6758815262877182,
                0.09269743677885539,
                0.32404235292184047,
                1.2512794418071664,
                0.18141094184702888,
                2.0612023199186384,
                0.7289021434981009,
                0.720357348945774,
                -0.5423760972584731,
                1.2386177232234288,
                -0.2638561225027178,
                -0.4187375138713458,
                0.40524120866244573,
                0.02958493300857581,
                0.42684299793609676,
                -0.41016188440844487,
                -1.0498862560557065,
                -0.49331257545999785,
                -0.9714490255142222,
                -1.2345835438195827,
                -0.34871116526529156,
                0.2545214372815456,
                0.479894320155143,
                0.582809611570206,
                0.7851599528727674,
                -0.5011715413116419,
                0.300569511952564,
                0.8775662277236083,
                -0.6790144587480511,
                0.01623318163947947,
                0.9146537738251204,
                0.7234700087446341,
                -0.3506044552893791,
                1.1986498191323682,
                0.565526808866877,
                -0.2533483336349212,
                0.21708464130660038,
                0.48423952911116463,
                1.9010869803310915,
                -0.7197802734523304,
                -0.6782413492137417,
                -1.2653894325453379,
                1.3676319751833208,
                0.23381644534936574,
                -0.9681472098613673,
                -0.35835472600646284,
                1.6241453805581059,
                0.7070098898717931,
                0.42074937502547144,
                0.01906924813268877,
                1.3830393288404346,
                -0.24252362104076483,
                1.4513393133372332,
                0.04018212864906785,
                1.5268020512007656,
                0.012361564495787179,
                0.29962279955267734,
                -1.5453307903975881,
                0.8461787745407683,
                -0.6400578983535793,
                -1.122406041056162,
                0.05655049959344865,
                -0.3106575737038341,
                0.03452082130963814,
