[
    {
        "nH": 10,
        "mH": 3,
        "act": "ReLU",
        "loss": "MSE",
        "epochs": 100,
        "l_rate": 0.1,
        "bias": [
            [
                -1.5621113611287405,
                0.602193737666913,
                -1.4255269399443111,
                0.6323742597822523,
                -1.073226923752206,
                -0.23558127889767086,
                0.9222728359557499,
                0.8339834367107378,
                1.6789997964723378,
                -0.614673060301166
            ],
            [
                0.5149271271690604,
                -0.3946903665917905,
                0.7575396768560753,
                -0.6251989149945016,
                -0.2808495098166633,
                -1.094699510314263,
                -0.15611850375281122,
                -0.7406876507838893,
                -0.735690269112169,
                -0.8725495569182852
            ],
            [
                1.8375639440515954,
                1.1829406664830235,
                1.3230896420931146,
                0.37207558877517705,
                0.8934046580219085,
                -0.18474066464803937,
                0.38457183132897477,
                -1.7490414482245564,
                -0.11607316248720229,
                -1.0031515836904918
            ],
            [
                -0.5152847993789506,
                -0.6359543884839081,
                -0.04775018272659788,
                -1.2816609461984942,
                -1.736166929032269,
                0.44617416392680254,
                0.03917798866672142,
                -0.7559779540262177,
                -0.33683763329760663,
                1.1354637059402897
            ]
        ],
        "weight": [
            [
                [
                    0.28717885171626517,
                    -0.30807592117604143,
                    0.08833550913148444,
                    -2.4409033846828208,
                    -0.9052875937314253,
                    1.3710667338833438,
                    0.049402694913849195,
                    0.8794708871918723,
                    0.08651738190986082,
                    1.1676109014962135
                ],
                [
                    -1.4980689247381591,
                    -0.5365142249944744,
                    -0.022167982613656285,
                    0.2308202835964114,
                    0.13327440157155274,
                    0.27367894475267923,
                    -0.6134126117641561,
                    0.4242608229274495,
                    -1.649825486105155,
                    -0.27034889758110164
                ],
                [
                    -0.11073882803587455,
                    -0.14281557982234758,
                    1.5464568199447504,
                    -0.6234865050788664,
                    -0.13514210683764089,
                    -0.8255960213614623,
                    0.9788291288850866,
                    -1.1213447868759199,
                    0.8044109978793152,
                    1.0608597703818603
                ],
                [
                    -0.011554792223984828,
                    -0.4324364785477739,
                    0.7898319328474387,
                    0.7196168038052306,
                    0.6844885317675535,
                    0.6642378929457203,
                    -3.2936927577698283,
                    -0.1809076678870171,
                    -1.194403970908475,
                    -0.6350979942058678
                ],
                [
                    -0.632136431504708,
                    -0.39255251056143514,
                    -0.7053318131775939,
                    0.24603015869498435,
                    2.2053241911329433,
                    -0.3385647784826816,
                    1.1630431051398304,
                    -0.7988123998739125,
                    -0.6103153962256754,
                    1.2608281046202099
                ],
                [
                    0.5015575427686965,
                    -0.882262722453866,
                    -0.04565480888530561,
                    -0.013792744161474186,
                    -2.0397841171038698,
                    1.6154641504234304,
                    0.3832128541234764,
                    0.2514358405251334,
                    -1.5538831648594613,
                    -0.739040976746166
                ],
                [
                    -1.120404294271074,
                    -1.0680951825107814,
                    0.6014124360023458,
                    0.047832558914924196,
                    -1.0915394252083266,
                    -1.06275185603299,
                    -0.21238115769448343,
                    0.3448965123900147,
                    -1.1803431347097169,
                    -0.8538907632441118
                ],
                [
                    -1.9964620416050998,
                    0.8319180782156617,
                    -1.3949897997214729,
                    -1.2500103079590734,
                    1.013110147434077,
                    -0.7172802487507908,
                    0.8104396014148141,
                    0.9187866437694616,
                    0.008307629221339456,
                    0.6754285560280922
                ],
                [
                    -0.45766612688142644,
                    -0.5403392652483948,
                    -0.12606158966529796,
                    1.194338269996343,
                    0.02570457234955046,
                    -0.18095038015608317,
                    0.9050872736242472,
                    2.3939868161555,
                    0.3945903082881021,
                    0.14308194848082229
                ],
                [
                    -0.285621734301011,
                    0.9220224528941048,
                    0.4696781232195576,
                    0.4600836830819672,
                    -0.07897706598469957,
                    -0.37319986697067564,
                    0.9129080449337642,
                    1.3010764394774088,
                    -0.9208366249626478,
                    -0.3274679401073734
                ]
            ],
            [
                [
                    -0.5613540526287657,
                    -1.0793906376130946,
                    -0.4559819914388247,
                    1.2057464069328563,
                    -0.41072064201099906,
                    -0.5797612430719344,
                    -1.7066579294395623,
                    0.059491334589238214,
                    -0.035500840923159374,
                    0.17961643470270852
                ],
                [
                    1.407246578676234,
                    1.0291131722412366,
                    0.41193614611556156,
                    -0.3541055117987644,
                    -0.7699174302947049,
                    0.22822588110226635,
                    0.7272406605645031,
                    -1.2094095196651486,
                    0.16303136901077755,
                    1.0077868046323077
                ],
                [
                    -1.696450751410082,
                    1.0359812554261447,
                    0.10607246630467786,
                    -1.4172797118284186,
                    0.7159413945896121,
                    0.6637133233089579,
                    0.059010272807037294,
                    -0.9434991357232135,
                    -0.17674817482902688,
                    -0.8290981406767564
                ],
                [
                    -0.2495410673673397,
                    0.4790363187184322,
                    -0.12485893988874491,
                    -0.03459915072794329,
                    0.8616626371294304,
                    -0.1719620756717507,
                    -1.2564571891890737,
                    -1.100193477116952,
                    -0.11029477179953591,
                    2.875275853839554
                ],
                [
                    0.7608481152808644,
                    -0.35248145827857585,
                    0.2313326627049906,
                    -0.20596955473671277,
                    0.39899162347358463,
                    1.3819765906823862,
                    -0.08976732415321084,
                    -0.7027557923040851,
                    1.0452027458302302,
                    0.0571870232307266
                ],
                [
                    1.1445527756913192,
                    1.4475698585446857,
                    -0.9179426592994587,
                    -0.7673339157567695,
                    0.7082037983840296,
                    1.0480769271700772,
                    0.5611868848640791,
                    0.7994802284898704,
                    -1.7158082313423915,
                    -1.2994413314511624
                ],
                [
                    -0.47107648723292356,
                    -0.18785208230909625,
                    0.9972468957080396,
                    0.9417515940773649,
                    -1.030665654718942,
                    -0.2784492865689649,
                    0.5386249043435862,
                    -0.4070527617084687,
                    -0.5709481675005961,
                    -2.6661477774157527
                ],
                [
                    1.3067333669537857,
                    -0.11189297677505275,
                    -1.8960737121653504,
                    1.0420583739428055,
                    0.671286293753648,
                    -1.4208629068149192,
                    1.383338721216791,
                    -0.31528463566329923,
                    -0.31627938972270214,
                    -0.1755475581073955
                ],
                [
                    0.5096398989299092,
                    -0.5833693028286198,
                    0.3943535795326563,
                    -0.26579877490803716,
                    0.9430983370300322,
                    -0.2452241639559892,
                    -1.2890073110056615,
                    1.2252219133345805,
                    0.27778523737312466,
                    -1.4158898228637193
                ],
                [
                    -2.361622762244376,
                    -0.4290976965163595,
                    0.4966910603438119,
                    1.4468511336701084,
                    2.8506909652385812,
                    2.066647750902187,
                    0.5464210083696407,
                    1.1849955061900572,
                    0.08648604971087173,
                    0.7585623850183216
                ]
            ],
            [
                [
                    -0.9215813979589463,
                    0.12225509336481649,
                    -1.6552158166041158,
                    -1.4897686800988734,
                    0.5426464031733358,
                    -2.6169477042977207,
                    0.4794426054608916,
                    1.3882877646127554,
                    -0.05828545063908819,
                    0.1570276845185312
                ],
                [
                    -1.1395973647159006,
                    -0.7573594893587077,
                    1.099446387517769,
                    -0.7323044834434579,
                    -0.3716191032012527,
                    -0.03314248676554969,
                    -0.565765451572468,
                    -0.31874284616792287,
                    0.6300712221839236,
                    0.3343592503491656
                ],
                [
                    -0.1516122968211865,
                    -0.6076848899337394,
                    -1.2399287652542503,
                    1.1586842593867932,
                    -1.3537689289608095,
                    0.8971774990048212,
                    -0.47354576851256897,
                    0.143265379119995,
                    1.2367078670822644,
                    0.43521787040589777
                ],
                [
                    1.68832708052893,
                    0.8692553285677724,
                    0.916503291775236,
                    0.8191519272961341,
                    -0.7389990136108711,
                    0.2818462985332714,
                    -0.4799230104655331,
                    1.990188407716261,
                    0.7983118848828779,
                    -1.3222693717298024
                ],
                [
                    1.0285522293736362,
                    0.605485521997805,
                    1.5017345880402069,
                    0.13124960771633493,
                    -0.7095389776347824,
                    0.5502868528105842,
                    1.1913980777735156,
                    0.13480851298396615,
                    0.9902271335100035,
                    1.0514630192731609
                ],
                [
                    -0.009420921016369306,
                    -1.30338988161939,
                    0.29324661219939746,
                    -0.2605040181619414,
                    0.27157339386758755,
                    -0.49416575748562586,
                    -1.5256571971101927,
                    0.32645215943075123,
                    -0.8381828389626467,
                    0.46530797160873394
                ],
                [
                    -0.7888153764892415,
                    1.7238659028644774,
                    0.23665874482140128,
                    -0.15721672289387975,
                    1.2602540746586797,
                    1.9048236943351038,
                    -0.9042383376798904,
                    -1.5694287643433886,
                    -0.8467133690767641,
                    0.38279179607607405
                ],
                [
                    0.5133202014473007,
                    0.9777208414783716,
                    -0.0218894778011528,
                    -1.7775891559656052,
                    -2.012285064918234,
                    -0.876954889181513,
                    -0.4418748880728376,
                    -0.4937162061289921,
                    -0.7119398900450975,
                    0.4808859624987753
                ],
                [
                    -1.3246470662738044,
                    1.7728850882887128,
                    1.5670891734353853,
                    2.0072040027006284,
                    0.26983875281015984,
                    -0.18793136751373277,
                    -1.0938795889596669,
                    -1.5849641751472334,
                    -0.21175065274551916,
                    -0.21995256641686195
                ],
                [
                    0.7313558616947118,
                    0.22071805277677709,
                    -0.13940693880053753,
                    0.24725042398901828,
                    1.9538476651949686,
                    -1.442406237611032,
                    -0.18161617991540144,
                    -0.44192821458834064,
                    0.5246460769999544,
                    0.8455491214984803
                ]
            ]
        ],
        "biasC": [
            [
                -1.0861437227521888,
                0.035797856689946624,
                0.09420597319669363,
                0.28719336818079544,
                0.1508105628064905,
                -0.7350058654572782,
                -0.675707270301965,
                0.069804596076802,
                0.7181001277936634,
                -1.1680037022930514,
                -0.09346830243382907,
                1.700240741877834,
                -0.015270000726449086,
                0.5828124543433649,
                -0.24220861407498745,
                -0.6586273428021622,
                0.790128897514093,
                -0.84617520719988,
                0.8647575420388145,
                -0.2122409257816414,
                1.127963404317991,
                1.1054800669745288,
                2.0551355494580554,
                0.3401500869041658,
                0.170196519090775,
                0.45175838393507867
            ],
            [
                -1.055751036346349,
                0.25512996163812884,
                0.5578338993300163,
                0.7924546172679987,
                -1.507729031179816,
                -0.16236390192255676,
                0.18469301721366949,
                0.312607439986806,
                2.387677847030924,
                -0.24897559297495372,
                -0.16847802014856594,
                1.7197346880965823,
                -0.4203916498018366,
                1.2703369225217573,
                0.5747071322031909,
                -0.02112700966390932,
                -0.9600606883734055,
                -1.341243316041873,
                0.9591685826352249,
                0.3185090569294955,
                1.070521924070893,
                -0.8980579385880205,
                0.24147615557468888,
                -1.6642803492258038,
                0.6942407837717667,
                1.187526600442744
            ],
            [
                -1.2497312883815515,
                0.5855033256390166,
                0.12025821591451649,
                -0.5101844269119479,
                -0.6257408592033612,
                -2.0296552902358536,
                0.19175581563293767,
                0.12307959949327817,
                1.1179206656903464,
                0.5073019225034556,
                -1.1691694715786447,
                1.2994296270977022,
                0.7442582802851028,
                -0.22242992756130547,
                -0.9009178366640078,
                0.44829516975034767,
                2.2381704405905114,
                -0.21806386554337048,
                -1.340796551132416,
                1.165005737072587,
                -0.6461971350027791,
                -1.7711860856717432,
                -0.22209148154488165,
                0.20359470392674814,
                1.284402537816,
                -1.1275083529177328
            ],
            [
                -1.8697918638595497,
                2.0556371435127505,
                -2.4353399397417377,
                -2.5863708289686023,
                0.6525795690920797,
                0.05894213929097189,
                -1.157363361569169,
                -0.11160830580421152,
                0.4406911431411283,
                -1.5577257231144797,
                0.03304534569189695,
                -0.3712191183724696,
                -1.2058793503507597,
                1.0746578194539584,
                -0.6495300067295455,
                -0.013169671562922945,
                0.5371487603810036,
                0.8008753211976358,
                1.686102806660586,
                -0.23947163417250014,
                0.10566686957189175,
                1.0939322685360262,
                0.7467841286636732,
                0.23835514555253037,
                0.29884662563157816,
                0.9585810415794023
            ],
            [
                0.7693417771354292,
                1.6799055551843172,
                0.7520570495542523,
                0.17114901028929033,
                0.756672124936731,
                -1.3369212462259408,
                0.8309048914919549,
                1.563157102447595,
                1.8799610713594266,
                -0.48731784824535634,
                0.48412503959025355,
                0.8928054242707988,
                0.3983228715454186,
                1.6221631280424373,
                -0.18756174239731435,
                -0.7127865287778192,
                -0.30035620248048167,
                0.5590689803740884,
                -0.062372829289626,
                -0.848803561234309,
                0.7138583436812082,
                -0.04095444113502232,
                -0.930654201734114,
                -0.47722806478975033,
                -1.2244904856621774,
                -0.7979295237646702
            ],
            [
                -0.5009534879216192,
                0.40309271082858084,
                1.06476197890142,
                -0.4672593223381443,
                -0.10172005324514481,
                -0.6187572499587095,
                1.5323721761784488,
                -0.6730173648389673,
                -1.0128662439001566,
                -0.697150089356888,
                -0.029898875879801484,
                0.9780126985478235,
                -1.3795137633284782,
                -1.6628491436662738,
                0.4134092942882691,
                1.4939406394081782,
                1.6380331658458125,
                0.6935236912303391,
                -1.7019969338221224,
                0.5995555440360818,
                -1.2045018788114745,
                2.6786342693081577,
                0.6764570263250803,
                -1.3045570046907475,
                0.5016291364041032,
                0.1850934281929256
            ],
            [
                -0.24767637270587012,
                0.3007530233593814,
                0.6283692180870717,
                -1.3391964667984888,
                -1.1168556665211375,
                -0.38950663708879973,
                0.12039805574024458,
                0.4936209943194653,
                -0.42764712325596216,
                0.4740067608196696,
                0.17437045456674038,
                1.2254568879585737,
                0.09732796885635463,
                -1.1569748328997136,
                1.612501736207903,
                1.5971423640278504,
                0.5690613007435835,
                2.1626330111982015,
                0.5174113630639854,
                1.47640200518941,
                1.3835761102143538,
                -1.6782633960719429,
                1.4236003307674658,
                -1.0987136866503415,
                0.06189435430248573,
                0.9549466664116842
            ],
            [
                1.7509216814489585,
                0.055418049069554366,
                0.2241043625220692,
                0.5486857635565515,
                0.7803412749950324,
                -1.4816836751751838,
                -0.5005788159150654,
                -0.6050460946842684,
                0.930778832995409,
                1.672951368985037,
                1.4211513385203869,
                -1.371583599184667,
                1.6383561462588974,
                -0.10754334988390855,
                -0.117593974561235,
                -0.5932266957311694,
                0.1528362896962354,
                0.8488002514270339,
                -0.740312645660044,
                -1.4676571670991152,
                -0.1092334691879729,
                1.7480295299338602,
                -0.5617726542144497,
                2.674986977102994,
                -0.15646004677393344,
                0.9140853544599268
            ],
            [
                0.15125568384715557,
                -0.8034795611034504,
                -0.5544831991847143,
                -1.4684564535834146,
                0.5147607912102117,
                -0.2076788257579498,
                -0.17688235344192035,
                0.6606168248083463,
                1.286165822754444,
                0.0935859791541166,
                -0.30021605554513336,
                0.33414448436658173,
                1.3529040440234372,
                0.8121027128438236,
                -1.9811677375595624,
                -0.4382842886537021,
                1.184386145337292,
                1.1127972193616462,
                -0.35829243076366907,
                -1.6636438222047096,
                0.2281492589407207,
                0.2575611875330674,
                -0.8576076170620489,
                -0.5035032340563572,
                0.35963350244293657,
                -1.7635958645680507
            ],
            [
                -1.0192964311733483,
                0.033384748121065455,
                1.673459352054895,
                0.10563023237947276,
                -1.1636100515829961,
                1.648305321037938,
                1.109906806884267,
                0.8719892043975652,
                -1.953475008562755,
                -0.9638801145719095,
                0.110458111540834,
                0.48721941865131413,
                0.37635411712067246,
                0.04576422908667916,
                1.115250771035096,
                -0.49289900110840723,
                0.19222016850537613,
                0.1915294187901989,
                0.9975841652222714,
                -0.7805217960894961,
                1.1175062064184214,
                -1.2922852637962734,
                1.0015797706846337,
                0.4207655915091283,
                -0.10801223021790093,
                0.6658822357122902
            ],
            [
                -0.4023684477424018,
                0.7443382780823027,
                -1.3023065361208739,
                -0.1958990774368858,
                -0.9157379746401922,
                0.007316691315261793,
                0.7145886785856227,
                0.4934996450675,
                1.479191955513979,
                1.9024955860254407,
                -0.39220260366484905,
                -0.3540399959183477,
                -2.642752627029571,
                -1.0680740785113245,
                -1.368404013165635,
                -0.330377028478222,
                -0.8193327652344784,
                0.9567747197244324,
                0.25140715495887617,
                -0.7147005686758165,
                -0.8094907988919542,
                0.2953350635965245,
                0.923723139425722,
                2.3305821360409986,
                0.1303821961057842,
                0.30121804198440777
            ],
            [
                0.5531151447630712,
                -0.12352896414985616,
                -1.409356523330201,
                1.2059874411911906,
                -1.3293015560255486,
                -0.21551415674938368,
                0.5283873450910749,
                -0.19576802858415965,
                0.7507364141217897,
                -0.4622273480419433,
                0.8880314365362793,
                -0.9738480973080003,
                -0.869831242832179,
                0.9705627149951186,
                -0.29495390666642407,
                -1.0594420352700227,
                -0.5874772565791061,
                -1.3464959019993676,
                -0.9597495617329557,
                -1.9919541271208094,
                0.560099859009997,
                0.7090656166229243,
                -0.10992541896380756,
                -1.0936550714910753,
                0.04901249568576312,
                -0.2207882130267057
            ],
            [
                1.1522739272909086,
                -0.4418840664390344,
                0.036207778149455326,
                0.8257150029015581,
                -0.043364390353546826,
                -0.8694627997084103,
                0.16783775447361532,
                0.7497056105898061,
                0.7325496545249421,
                -0.8156383643918619,
                0.3119196559075646,
                1.143737067285614,
                -0.19126988942059053,
                -1.3230120939835708,
                0.6425402916050048,
                -0.8830609878281348,
                0.8833310459022664,
                1.0395461474950904,
                -0.25831204441722067,
                -0.7853272150328675,
                -1.4038315992374,
                0.1899495278746909,
                0.005330105467408955,
                -1.5690789259638098,
                -0.8809701586667996,
                -0.30288803532185027
            ],
            [
                0.922793215158554,
                0.932750823705187,
                -0.21835385946817668,
                0.7939454067354161,
                -0.21688759789196366,
                0.9044005319965774,
                0.7861448432086484,
                -1.0000305987157698,
                -0.609028242426171,
                -1.4702774066144892,
                -1.0595085673611342,
                0.7073221253709755,
                0.10661709650476146,
                -0.08033696081856401,
                -2.984447754307241,
                -0.928854442078406,
                0.08056899179940812,
                0.21951102906073172,
                1.456646300064502,
                -0.31888184836360295,
                -0.43019245744784307,
                -0.09191212909731827,
                0.9318818248380577,
                -1.0210707327865272,
                2.5986979594271693,
                0.2927513467783038
            ],
            [
                0.34108296964799134,
                0.023313379181076954,
                0.1511599926903671,
                0.004380702077550947,
                -0.1661191093309983,
                -1.1933685449326885,
                0.516483705926575,
                0.4766459989279772,
                -1.534439019372365,
                0.40470556744710035,
                -0.4085796513037942,
                -0.3126153819329589,
                -0.5808001791507865,
                0.1884568196037486,
                -1.6407620173836235,
                1.3511415820359929,
                0.18762319628879684,
                0.3997432728443901,
                0.033973231748478556,
                -0.5987027119683462,
                1.0622984387851255,
                -1.6583759570208005,
                -1.6565262861993022,
                -0.25330311830413144,
                -0.4638580088067689,
                2.522368312517252
            ],
            [
                -0.5036938147522122,
                0.9467608680862274,
                0.6595655538111983,
                -0.9814488202420301,
                -1.077915039459155,
                0.6487254319812245,
                -0.20819107378446328,
                1.3415741889654087,
                2.0790365966566644,
                -2.3558462853812316,
                -2.071711690830323,
                0.019270218376717687,
                0.5218590502833018,
                -0.17537262052006033,
                -0.6227450158220064,
                -0.11640054972820296,
                -2.5956312232258343,
                0.7044333513092537,
                0.26853636836058503,
                1.023473155299325,
                0.9432722089753399,
                0.2402487328818647,
                -0.24036841771065107,
                1.143468887094114,
                -0.4824131147407866,
                -0.7272139775403944
            ],
            [
                -0.23058552493607007,
                0.7934456933505434,
                -0.6771004998886886,
                1.3431964197779478,
                0.05935243248337162,
                -1.3603827723994881,
                0.06583658764309505,
                0.8721171778812787,
                -1.3494474166407409,
                -0.31685049823590544,
                -0.9821629853362527,
                -0.6468852621183977,
                0.5959139534352362,
                0.9858045113508235,
                -0.8939492613149008,
                2.3689856533895663,
                0.46036898090545236,
                -1.3914661718187955,
                -0.562655674296314,
                -1.6735955774235332,
                0.5843245848466232,
                -0.782774193784293,
                0.7462443311010203,
                -1.3356494602852593,
                0.036932380880807504,
                0.7219140759024609
            ],
            [
                0.4071261176299501,
                0.44853441635960106,
                -0.2556924780916689,
                0.5060471823478505,
                0.41897002085168966,
                0.7189627154369996,
                -0.9357017514783649,
                1.8757978005519653,
                -0.48487672698128864,
                0.07196508349286662,
                0.4377734658316777,
                1.0223975790446977,
                -0.3934960470431477,
                0.17822177381806031,
                0.5823471026672018,
                -1.2337988239200695,
                1.8471870070790175,
                0.6931636008339191,
                -0.17848744945991626,
                -0.8308812917145637,
                -0.7085947947837524,
                -0.23960848064132045,
                0.24176465379452133,
                0.25016565166089383,
                0.6451491970219433,
                0.02059091986927416
            ],
            [
                0.3280109589170782,
                1.0610148916722792,
                -1.3076570862002022,
                -0.808157072373744,
                -0.8244996252072434,
                -0.7167964038627674,
                -0.006603710310660207,
                1.0430102212910122,
                0.38546223229757476,
                -0.9341063596892377,
                -2.213830714406174,
                0.3190594475678206,
                0.17059091980340355,
                0.5304293816741042,
                1.9296104392501727,
                -0.0028155136345657823,
                0.38293993431593915,
                -1.9150362903378415,
                -0.7070774014778652,
                -0.2766362946133932,
                0.3826770477070416,
                0.7784380504255701,
                -0.1622255763785929,
                0.8316937077592393,
                -1.165005091247401,
                -0.24438834248879457
            ],
            [
                0.0890461367876555,
                -0.7272219381097405,
                0.6971403719707815,
                1.4348981520934263,
                -0.9054928211997316,
                0.39724638294668446,
                -2.20390905038426,
                -0.8427293682898297,
                0.5228641286919415,
                -0.20354808935258262,
                0.7308487778661598,
                0.2675231254060138,
                0.9342324472286353,
                -1.6465167372628617,
                1.0389565231513997,
                0.5457924677013888,
                1.2334422162012821,
                0.10855190264766693,
                -0.44970012328066983,
                0.09378064888097817,
                -0.14626844649307175,
                -0.7221407636677382,
                0.905610589433756,
                -0.48829447104507123,
                -0.9163025980925766,
                -1.5850965715528014
            ],
            [
                0.8241137969884887,
                -0.6036160794872545,
                -0.0930669183271547,
                1.4839102429067539,
                0.8174211859921962,
                -0.9501600395240114,
                0.7183543848027977,
                -0.7285415939295953,
                -2.6472637228329505,
                0.22877785093068173,
                -1.490943022990648,
                0.19840594877897594,
                -0.16614096638502457,
                -0.7137338467502142,
                -0.34196121796834483,
                1.1519640139393157,
                -0.6045406727557503,
                0.5650802796666466,
                0.0465889764488391,
                -0.601618235701944,
                -0.8182155550799609,
                0.12277484839847758,
                -1.3995453078462952,
                0.8166084000735321,
                -0.24501536874118726,
                -1.1409543857653874
            ],
            [
                0.6057157368933329,
                -1.049182949001103,
                -0.1832443842061654,
                -1.0827293177796975,
                -0.04924229878505703,
                -1.2481807168707149,
                -0.3794500634298447,
                -0.3932883196246629,
                -0.1453671548068856,
                -0.503098860448174,
                1.2835990998916165,
                0.08861798251538579,
                0.8989516636178418,
                0.19500063022698716,
                0.04588196672560265,
                -1.0204325391442322,
                -0.4713288264157389,
                -0.5820700249896817,
                -1.3685600063487364,
                -2.253736926133852,
                0.677278944168207,
                -2.1073365858535182,
                0.4966968538209631,
                0.7730273261267558,
                1.3898059126280127,
                0.7687506736473941
            ],
            [
                0.5934969637780715,
                -1.8794958661368588,
                -1.4054826751760836,
                -1.5403834235542397,
                -1.3547169559426993,
                1.1873738323420115,
                -0.5169517367698655,
                -1.5711156330555611,
                -0.09225482536782904,
                -0.4181274129247007,
                -0.5248352982579343,
                -0.31167319771131685,
                -0.18600272389274902,
                0.023163847974264927,
                -0.9762578810732556,
                -1.0584688350608056,
                0.5406293003495372,
                -0.7286876437939767,
                0.5305720698514035,
                0.22466142841144113,
                -0.47191130847161933,
                -1.412786715751858,
                0.6770364953788102,
                -0.3092159849399433,
                -0.7563442730388146,
                -0.11044297705524199
            ],
            [
                0.36771676778543405,
                -0.1544594979688863,
                -0.23811531328393032,
                -0.16478217754669114,
                -1.1223005939912285,
                -0.7870926373301935,
                0.5961979253932728,
                0.1979922178739094,
                0.4954377121735118,
                1.5315290250301583,
                -1.7870246282307711,
                1.1210562865354385,
                -2.8225237102085114,
                1.2338141026221454,
                -0.7911807026754973,
                1.0550282626811847,
                0.4723731314062229,
                1.832319464891898,
                1.4493039007190358,
                -0.45069815017079784,
                -0.18734003213482836,
                0.3839184976939147,
                -0.2042926537780169,
                -0.6144992561698206,
                2.3639606079140383,
                -0.8026238291940556
            ],
            [
                0.8703213611943675,
                -0.5333391624847196,
                1.0822577525226789,
                0.8151723959379633,
                0.44363663154504474,
                0.8941192508545162,
                -0.8202464009315711,
                -0.839342315516644,
                -0.6245984650455607,
                0.041251000688294265,
                0.4736481897498144,
                -2.3797969332191338,
                -1.2422724309320416,
                -1.8561661612213791,
                -1.67595075320207,
                1.69799693322094,
                -0.47783861443263725,
                1.8200794930295352,
                0.71216204350095,
                -1.0010715125548826,
                -1.801465994892729,
                -0.4960224448928038,
                1.2837954811372305,
                -0.40899126627155874,
                -0.5377405995015555,
                0.9527380261618105
            ],
            [
                -0.2745093982758102,
                0.8447076991336002,
                0.23060421700268882,
                0.6371865624855096,
                -0.39871268040612107,
                0.7657553229878435,
                0.5504195605066486,
                1.6301168381330577,
                -0.3911507357933941,
                -0.20161251354783402,
                1.3937607368841043,
                -0.6833720376089263,
                0.7477670732312958,
                0.03310851177844857,
                1.4479132482456822,
                -0.46404061055130424,
                1.5212926044173893,
                0.43525284137860043,
                -0.44875567651184056,
                0.38280390510872275,
                -2.7298067735793543,
                -0.7564222662263175,
                0.6820520485527255,
                0.50666635892299,
                -1.2447484480182935,
                -1.6910236480695535
            ]
        ],
        "kernel": [
            [
                -0.20796090692259425,
                -0.5440447042601235,
                -0.37253399286655425
            ],
            [
                -1.4442879969771998,
                -1.030407446789418,
                -1.2148587404159146
            ],
            [
                1.0137608110417322,
                1.463159297396396,
                0.8462439796948326
            ]
        ],
        "wih": [
            [
                -0.44239409166991733,
                -0.008499327109820298,
                -1.4377911202711249,
                0.9663398146835239,
                0.8117667847356632,
                1.2523932478081548,
                1.078586866526947,
                -0.9832610496902834,
                0.05949376085103699,
                0.0379592789966322,
                1.918520735863672,
                0.019999056000321987,
                -1.6141898632461265,
                -0.6701398367487231,
                1.6077840664750989,
                -0.7997497950718638,
                0.3095710940686936,
                -0.17387199669352812,
                0.7996345085030725,
                -1.3847135982881442,
                -0.48127236955191094,
                -1.2056594830239424,
                1.3915270557201285,
                2.047316245264254,
                -0.7811672307130287,
                1.5684483203213044,
                -0.5628463139096563,
                -0.47527301088549784,
                0.8851515420425525,
                -0.15861532294246583,
                -0.9659527270713129,
                1.438794777975033,
                -0.7960768435597555,
                -0.8064463228592903,
                -2.4633610944862667,
                -1.0844726636870445,
                -0.821790662938793,
                -0.04380068575086509,
                -0.001556169484698382,
                0.12141704617137253,
                0.34411052252464613,
                0.8179224863529434,
                -0.16755151708925375,
                0.5319567253044685,
                1.1906133911072942,
                0.9538102507932232,
                -1.105493063202399,
                -0.02014916077366625,
                -0.7296736057258859,
                -1.1123408913676318,
                0.09170831865573395,
                0.9902576233307534,
                1.87368733359839,
                0.9685728395659914,
                0.16545716614308187,
                -0.9954425237291655,
                1.3924093979674452,
                0.9746335020668123,
                0.046288294619027774,
                0.20155079775569407,
                -0.8059501706999618,
                -0.5564176942141286,
                2.552913440919102,
                0.656619957367342,
                -0.3575670815410161,
                -0.4214149065340109,
                0.7025085643428983,
                -0.031055574235292406,
                -0.20877363610361638,
                0.36089748695728574,
                -1.0103068641874866,
                0.3571137215677104,
                -0.12457134684612982,
                -1.1349817434340952,
                0.9195644711310634,
                0.8775264458958927,
                -0.8727548975067401,
                1.611692819671821,
                1.0438011694324842,
                0.6360690894888649,
                0.22450382707587951,
                0.6708983695674603,
                -0.19255118039538702,
                -0.2860558464031763,
                -1.0445747251587663,
                -0.14022591738550855,
                -0.2998766618483584,
                0.2184386587649454,
                1.4251612043738506,
                -0.32029989382526936,
                0.09933929661683458,
                0.2583365006944586,
                -0.6830194832243224,
                0.32660261439910787,
                -0.11470963842424035,
                0.48319827743111543,
                1.1910240866017527,
                -0.7560963860385574,
                -0.4222990001612014,
                -0.7094517431640696,
                0.9011546544099028,
                0.07721510623980295,
                -0.33392762000308507,
                1.4995997496125746,
                1.834435459404746,
                0.5920004757823183,
                1.943382360749664,
                -0.1547117117129213,
                0.08822904668571366,
                -1.1347858788782204,
                0.4444275935534585,
                -0.864155976411915,
                -1.5134614502471315,
                -0.115571314006298,
                0.32469396372299086,
                1.1713766759298982,
                -1.2703039721738707,
                -0.994926896950206,
                -1.0148892865846013,
                -0.5696720451725668,
                -0.5672280683208738,
                0.6952572855255003,
                -0.30664605755415963,
                0.2642548070389813,
                -0.34418548337207056,
                -0.8822800422426913,
                -0.262611413298033,
                0.796420820271741,
                1.828643353038115,
                -1.2516568590008825,
                -0.3855633560552757,
                1.9801663772282958,
                2.029603766270172,
                0.3925918371263958,
                0.2350131143326578,
                0.4730720259320436,
                0.8420056434445753,
                0.2939763085650944,
                -0.5198276029958939,
                -0.24779551961693147,
                -0.3459594227186561,
                0.3841162580508579,
                -0.1905975323212585,
                -1.3867558267943592,
                0.6343610769009488,
                0.38622790265703205,
                -1.1556552766281598,
                -0.14519209193586857,
                -1.0788025785874353,
                2.0886351265880667,
                -1.7872884449409645,
                0.5250090449924099,
                -0.7388049025208738,
                0.559646913629501,
                0.12014708179858204,
                -0.13940357688141922,
                1.324256838056524,
                1.3002056219468112,
                -0.10309201933291857,
                -0.6824601810898419,
                1.6093204959353922,
                -0.040764370600849274,
                1.2970863248682514,
                0.10259295788900662,
                -0.14159220146596913,
                0.6813476518266219,
                -0.4295398980870167,
                0.02627921632983412,
                0.048578406986504286,
                -0.7218435091050741,
                1.3497469226189374,
                0.7815168810591133,
                -1.2485313328105372,
                -0.38405949141564283,
                -0.013513836268028642,
                -0.2945193453576328,
                0.8270069593687148,
                0.7321478492445486,
                -1.1363963350913528,
                -0.33238864255642425,
                0.4454593518297719,
                0.883141455156936,
                0.6820829835718301,
                0.23451384403798026,
                0.5400839002734096,
                -0.8981292445629502,
                0.07138967522917838,
                -1.1025512905516883,
                1.1332992873186187,
                1.974636162725236,
                -1.2876620715071208,
                0.46528320847319393,
                0.12806091854834672,
                -0.3420861837458955,
                -0.7610240120268544,
                -0.8540258904683251,
                1.7360416153398617,
                0.6734925054407378,
                -0.5982999598657758,
                -0.1104169234877604,
                -1.0176451325406262,
                0.524996022605455,
                -0.18262967061372695,
                0.8723703805636182,
                -1.439434990026735,
                0.3370342949500176,
                0.05107667579687348,
                0.14702919495716094,
                0.25583994397552173,
                0.24948736678232272,
                -0.6990111998956454,
                -0.15874669763067012,
                0.9094549756820186,
                -0.29887930762164355,
                -0.9201246119330777,
                -0.03597480796831055,
                1.4335930763115696,
                1.1828888828412172,
                2.082090797690251,
                -0.2515978952827533,
                1.0009142664779043,
                0.283580888704505,
                1.0160928512878409,
                0.7779057523479892,
                -0.2041080796914677,
                0.24714284844207596,
                -0.7174764716782652,
                0.5766614246009389,
                0.08871540718530098,
                0.8227602146533673,
                -0.11732984244090731,
                -0.30358049700603806,
                0.546694301627368,
                -0.03722640311654783,
                -0.3805362655515923,
                0.8857042123808911,
                0.9839630064842997,
                0.7617245430417791,
                -1.1857569940092816,
                -1.1511892245410915,
                1.1485132397757338,
                -2.301365801293416,
                0.6164914245372364,
                1.9101989062330715,
                1.7941253384056037,
                1.35396177809662,
                0.3802488367571254,
                -0.969869071836851,
                -0.8329958447099239,
                -0.8884084500000725,
                -1.4293044089936409,
                -1.6127683608839616,
                -0.502913139380897,
                -0.9811528289064206,
                -0.0023738905553017126,
                -0.28972377468635724,
                0.29720940571086757,
                -1.1285464054374648,
                -1.6571043013351348,
                0.20424993649592224,
                -0.4178722830688613,
                -1.630464477276648,
                2.2579615560564497,
                0.6120118384030281,
                1.0513413755227765,
                -1.9545432899844817,
                0.5599932066494201,
                1.363764022348483,
                -2.1824988379369703,
                -1.236680215297671,
                -0.523940221822349,
                0.613251860778555,
                -0.8116793121403737,
                0.828433283340461,
                1.9421684281865554,
                -1.6971531770086985,
                -1.172677128467849,
                0.33551626700421755,
                -0.6331198184711145,
                -1.1698642037019182,
                0.22752416778238665,
                0.17212020101840209,
                -0.4557729648062687,
                -0.17543566734658422,
                -1.6388027589908771,
                0.6261835018522873,
                0.593844243803568,
                -0.15661740630512053,
                2.8492914013854205,
                0.6798585527972992,
                -0.15010458964829787,
                -1.0064825972441105,
                0.8200062753679875,
                0.5407505839522314,
                0.7802732804186799,
                0.4058234866179365,
                0.05142044068463261,
                -0.5877159472289768,
                0.1574461045467016,
                1.401794665919678,
                -1.8311108894158945,
                1.905563290543367,
                0.4153706606238245,
                -0.539100144522132,
                0.19140088822939053,
                -0.43215319932122,
                2.01793088840728,
                0.5081240609139279,
                1.5813315657097777,
                0.978337619974535,
                0.6806753190995238,
                -0.5629778936086753,
                -0.01157555028041137,
                -0.5368720408907905,
                0.654879645335142,
                1.7235586691295115,
                1.2846492681441115,
                1.604583474560575,
                0.8383027440752321,
                -0.04626654560868191,
                0.6599431795832066,
                -0.1716204236673013,
                0.4152198525460725,
                0.8782998076572239,
                3.2347276712288386,
                0.5137870078548497,
                -1.232369774325829,
                -1.000541951490887,
                -0.38375745209154194,
                -0.8641133354981378,
                0.4344967429294157,
                0.24152076325045735,
                -0.2231422145325002,
                -0.9124906948214647,
                -0.6217869099475116,
                0.7477066811674831,
                0.5629016632294188,
                -0.4210546228692861,
                2.324109020085039,
                -0.9641489702962215,
                -0.7485903134187855,
                -1.902098163415906,
                0.695833575677381,
                -0.11651672877366724,
                -0.1154620029746413,
                1.4206085046506043,
                1.5941887665563517,
                -1.4325849624637512,
                -0.2842183628453488,
                -1.0103173877861913,
                0.0017155262743456024,
                -2.0723115916728747,
                -3.5542868530980933,
                1.5561247323495202,
                -0.144530478351735,
                -0.06295518640281735,
                -0.47393975681356243,
                -0.6758040855694516,
                0.6204085108904732,
                1.6826639837498278,
                -0.24777735826088315,
                -1.885823337463338,
                1.0722651326012185,
                -0.365602197597173,
                -0.17245325394121863,
                -0.5999051036672347,
                -0.8100366532757778,
                1.7724147776493655,
                -0.4089308925858844,
                -0.9113006186981735,
                -1.3524778270069557,
                0.4044800655850797,
                -0.2846240826038878,
                -0.8864378604099473,
                -0.06582168548962082,
                -2.4177594797533377,
                -0.5282108938154757,
                0.41607016729279345,
                -0.34556634797797947,
                0.7241078975217815,
                2.6085629652413562,
                -1.4539162492721802,
                -0.010489666078549474,
                0.20056334992321523,
                0.9447617388795334,
                -0.03242028702561352,
                0.5862732426413892,
                0.12359784722362835,
                1.1576046403827311,
                -1.52850630811643,
                0.575679259266532,
                -0.020072887561612324,
                -0.19409698206802392,
                0.5877193386119517,
                1.4494447868021156,
                -0.6660484242416653,
                2.5762484581739264,
                -0.16885475045941153,
                -0.1917747734313438,
                -1.2161386745706253,
                1.387282342042188,
                -0.46010543930778075,
                -0.13830391214600246,
                -0.26855617652934766,
                -1.1448536837548697,
                -0.2222390096010886,
                -1.687228446626384,
                0.6911988084022338,
                -0.6441276010764169,
                -1.2644825199943788,
                -0.38152178329299685,
                0.16284369376743865,
                0.9411784603523882,
                -0.5209824287854792,
                -0.9416123686418233,
                -1.3292650844192475,
                0.080655184939157,
                0.2023738223792163,
                -1.42823277710611,
                -0.6445825513461974,
                1.1341183372715038,
                -1.4550655624594633,
                0.507172470797776,
                0.8775921474890559,
                -0.8427253420383685,
                -0.5217697174618362,
                0.7664653522513083,
                0.32075710473283187,
                -0.6294912985135319,
                0.6314099387890127,
                -0.12400914603922131,
                0.30904999269188815,
                0.026636507001672548,
                1.4057744376779697,
                0.30334088163555817,
                -0.8880156431581813,
                0.45255570610237417,
                0.19551208482999585,
                1.6313892357019517,
                1.6484582658690083,
                1.5610316139235763,
                -0.6593659933786036,
                -0.5387036910855696,
                -0.17287558942541373,
                -1.6869323130404528,
                -0.09957484983538933,
                -1.487331784158239,
                1.339052110886898,
                0.10178148351101986,
                -2.4496826124129494,
                -0.5250046756894171,
                -0.15315877413320983,
                0.05307055642446901,
                0.455440767542985,
                0.2821110575711653,
                -0.05314987202398056,
                0.2653613052829442,
                0.5448163754031781,
                -2.082313259355577,
                0.2970428174664787,
                -0.7760791393011073,
                -0.4267512481222015,
                -0.9936359998163588,
                -0.7314814422262367,
                0.9396377346198003,
                -0.15509974197876167,
                -1.202854093047502,
                0.326700989084895,
                1.1241762838780154,
                -0.3160075330640152,
                0.7577381036563893,
                -2.2027133464922612,
                0.899948815037056,
                -1.6360310869747767,
                0.5876194539964135,
                0.5631687993367149,
                -0.0870400667840569,
                0.0226831953852975,
                0.295658668670004,
                1.6515729968209343,
                3.209812503096798,
                -0.06341313947613031,
                0.21661678296860967,
                1.7283494078909014,
                0.6654500747703997,
                0.3180194961600744,
                -1.44619245247509,
                1.1453883481951679,
                0.8463330281398547,
                1.2111700722960814,
                1.1524005356261764,
                -0.41952104265532125,
                -1.6012706085828277,
                -0.45990504439883667,
                1.5511596023824015,
                0.8687589567022794,
                0.16111929192955152,
                0.9185612712451615,
                0.5135810241021295,
                -0.19847502445415457,
                -0.48724425064583654,
                -0.15435996282499567,
                0.3825184714421841,
                0.5882889029564649,
                -0.712180515947266,
                -0.7912115441163878,
                0.9435726515720371,
                -1.1472405520886637,
                0.31373726701862303,
                0.06688665936525905,
                -1.0406048737287992,
                0.3409308329377829,
                1.7609625823393689,
                -0.709401946143618,
                1.2010480391819482,
                0.6708375147254727,
                0.35155674583682806,
                0.8281314927022106,
                -0.11662338518618746,
                -0.4467236447922126,
                0.4805007441579157,
                1.2694340179194459,
                -0.8528607154039466,
                1.1053286331917611,
                0.11057176801502526,
                0.5500018130324994,
                -1.3140984059939325,
                -0.7182216170030542,
                -0.17130765273116624,
                -0.16265570764795234,
                0.49633789361468295,
                -1.3282588685170928,
                -0.6156008934881283,
                1.1898810391602235,
                -0.2539501922936116,
                -1.614878891313287,
                -1.4286855314550932,
                1.233444289976816,
                -2.9474511403473116,
                0.5951078518273311,
                -1.2532589727386743,
                0.2211833498694729,
                1.2200183043302886,
                -0.036462106851566214,
                0.3289119729668147,
                1.0501428535886366,
                -0.7349695528369594,
                0.725995941109132,
                -2.6364736183262383,
                -0.1659157789503582,
                -2.1880107521577297,
                0.31164812758915533,
                1.6665457329475966,
                1.575804302903402,
                0.9681416822757809,
                -1.3156658633034333,
                -0.3308983087188292,
                1.4270196062152984,
                -0.585825974303596,
                2.049872297789208,
                1.7775789666082809,
                0.08525485442955447,
                -0.30752371721262495,
                -1.0739128815330123,
                0.0370711939762428,
                1.8490666014626995,
                1.5513546060312116,
                0.041959763040708024,
                1.2118840191957008,
                1.2236552806878918,
                -0.6151376835711755,
                -0.34673047375811505,
                0.28012461962233487,
                -0.06617158196636223,
                1.673193962699682,
                -0.8543806109250005,
                1.0334852555636325,
                -1.8762452533269287,
                0.8624101582071189,
                1.3065229644598986,
                0.9827045170407479,
                0.7304859952543106,
                -0.6227950039076945,
                -0.7016956452116181,
                0.14085106438976075,
                0.12105005099135763,
                -0.8943834665744292,
                0.4582004686683758,
                -0.2957747662766567,
                -0.8196435848282951,
                0.4832164007217451,
                -0.9981317301696233,
                -0.1534577758053083,
                2.1425010543976373,
                0.9420187118872281,
                -0.728002177056325,
                -2.403326290944303,
                2.159106541477336,
                0.5293654114114177,
                2.1528018727395155,
                1.1697267421586464,
                -0.9211174250058305,
                -0.08500923977985492,
                -0.42197674272939795,
                -1.9110237678260913,
                -0.5371044578866044,
                -1.4969271921327367,
                0.12294912027892212,
                0.02094422751477998,
                1.2280264410867319,
                0.41094493891198536,
                0.0839977178226219,
                -0.24478854981641035,
                -0.9475796323261061,
                1.7075820662544303,
                -1.7394557646230757,
                0.47126160641036535,
                -0.010532033475765788,
                0.18771287418089402,
                0.07777673539432235,
                -0.09184850370975074,
                -2.0498963128612226,
                -0.5553817866411231,
                -1.0303674255054125,
                -1.052204983524773,
                0.7324005208201816,
                0.8863870079957268,
                -0.7206120218091133,
                -1.0984900802115352,
                1.0106011217912367,
                0.2865547853314845,
                0.16182317958479972,
                -1.25585486757181,
                0.5970038437671954,
                -1.2361268765414357,
                0.710834992901629,
                0.793463030362326,
                -2.5070078829037823,
                -0.415126181580036,
                0.12051223324371294,
                1.2145965348751162,
                -0.13533268072500343,
                -1.8354957563120584,
                -1.9105566360803408,
                -0.4653458095514805,
                0.7709541049483124,
                -0.8858668526487977,
                0.5692517655805415,
                -1.3259163379558123,
                0.9597666227186841,
                0.1999261681910334,
                -1.7368280850437658,
                1.1583878203272913,
                -0.1526283286412206,
                0.6437056522804748,
                -1.2748567023252397,
                1.7509299061768904,
                -0.02338028819472624,
                0.33071684374410776,
                1.2704482642064285,
                0.35088478563904335,
                -1.0979435011299206,
                -0.2179083225245176,
                -0.7601748447921727,
                -1.2895157802510377,
                1.0971697008459147,
                -0.5354962499680995,
                1.1487049423010736,
                0.6000713130565525,
                1.3624878686696815,
                0.024358879506963506,
                0.25202706502529104,
                1.9744051976822135,
                -0.11426624808679836,
                1.6192246013294895,
                -0.040652103781686745
            ],
            [
                1.6699856609479604,
                0.18445052652539248,
                -0.35200923386233324,
                -0.31997046656583034,
                1.4626758190913185,
                -1.225109871987685,
                -0.2363229428731068,
                0.16286457188477493,
                0.825140892053974,
                1.4927289018514558,
                -0.12245345091412921,
                0.04659322139796079,
                1.0541412180002772,
                -1.696934360669323,
                0.4424371376130049,
                1.4790316490177353,
                -1.3884040281915475,
                -0.3158530321779163,
                0.04442457572094805,
                1.5416649062652588,
                2.228978577289994,
                1.325113141342702,
                -0.6418241430217675,
                1.410656058097555,
                0.30327117080419574,
                0.8267206507882527,
                -1.115279275191668,
                0.7148537232704875,
                -2.31191583492599,
                0.07623890163694126,
                -0.24852848740798675,
                0.7198922063132109,
                0.9906207889840799,
                -1.4499348374588563,
                1.9028556773505179,
                1.0401471156163211,
                1.5341975465820017,
                0.3964632169134312,
                -0.8451003204606726,
                -1.3128626538611745,
                0.3904114676808754,
                0.7393211124924446,
                -0.5692208497783904,
                0.8073396374848723,
                -1.8369334187672504,
                -0.4247288980578897,
                -0.5142527629242469,
                -0.6118657616810967,
                -0.6061361088550363,
                0.04564938507654185,
                1.3784987703617786,
                -0.43774345457726527,
                -1.9722914459043603,
                -0.1385590594805078,
                0.6747219698150283,
                -1.264663014630441,
                -0.5523208427975741,
                0.23935660664861988,
                0.150205128635844,
                -0.3565388611941448,
                0.1536551663445811,
                -0.9604269552054067,
                1.4318055009724324,
                1.9884878027613024,
                -1.2551100783847142,
                -0.5659989848188752,
                0.4475448449722058,
                -0.08019533599139522,
                -0.7007719552312655,
                1.7863181422182395,
                0.3946026552899847,
                -1.256044477396545,
                0.6257941095272099,
                0.7160610652118405,
                0.8551250364427284,
                -0.45910589862023504,
                0.1507856674277332,
                0.2585237792481542,
                -0.05275286908846803,
                1.491647442573986,
                -0.770923516538896,
                -1.485815460761306,
                0.05390379790143477,
                -0.4573720883223098,
                -1.091294063258523,
                -1.489548124727653,
                -1.3836938218781083,
                1.0560202018556442,
                1.6023077368967253,
                -1.4392783864339147,
                0.2844820754115266,
                1.8569407813319816,
                1.0569338162587536,
                -1.706564963618683,
                -1.6035224219131765,
                0.14828509492880276,
                0.7851847080360975,
                0.18110034047527526,
                0.8023628038618422,
                -0.2848242884409238,
                -2.089452718586876,
                -0.2520031331483777,
                -0.42536124397991687,
                0.711325773007957,
                0.8032357050230438,
                0.16037584809619934,
                0.34019783814427546,
                -0.5294004048832537,
                1.2511468920524533,
                -0.28559253602697593,
                0.28674006615807984,
                0.6903640431190797,
                -0.2932025582879753,
                -0.372530284247579,
                -1.5741006233471069,
                -1.5428519299043786,
                -1.4474634555302623,
                0.1439431188604524,
                -1.6525587250408678,
                -0.27874917513862046,
                -0.28654384038283254,
                -1.4988848022595973,
                -2.2155609149418303,
                1.422184338988612,
                0.7929818866955165,
                1.4731074207331067,
                1.0246857270394076,
                -2.0087825475621677,
                0.60526869611949,
                -0.4888642140416119,
                0.2752202434983659,
                0.22354632293215704,
                -0.8971753119398064,
                0.5081337233718587,
                -1.5481206063279989,
                0.9400719786516728,
                0.37489081651177975,
                -0.42671407394428984,
                0.7230978897319333,
                -0.9244751067737216,
                3.749733958544201,
                0.18499616123197948,
                0.13886828650867628,
                0.32697904107070747,
                -2.1835539135778093,
                0.7313311326418579,
                -0.19261762491980544,
                -0.16051186357657837,
                1.433937477763313,
                1.2347883858958346,
                -0.30628100054050156,
                -0.4837523742018945,
                -0.9932192986268886,
                0.9254990808618756,
                -0.8818115791462924,
                1.3418443948612155,
                0.15209651426888135,
                1.6183108568821292,
                1.9233888109188326,
                0.4733322194537204,
                0.6590146011171644,
                -0.8901086639680692,
                0.5246396768847331,
                -0.03296713315791459,
                -0.5223342276904515,
                -0.5115795410882397,
                -0.47108840191949153,
                -0.037651616825898675,
                -1.7513051913195394,
                -0.14286592492970135,
                1.4655732448730696,
                -0.821075031822104,
                2.6083903729353097,
                0.5872451149755737,
                -1.1507808652366902,
                -0.22327612086182946,
                1.1473709192438253,
                -0.9199590397143966,
                0.22177124834314904,
                -0.6700487288979629,
                -1.1344329352347315,
                0.24344994795628636,
                -0.6788062655930454,
                0.6881732409937752,
                -1.4826210292473867,
                0.18914009356566355,
                -0.06998065276466531,
                0.8984460599470475,
                -0.3113565963278386,
                -0.50690306172897,
                0.34000072876018694,
                -1.4424962606402998,
                -0.8500339464130957,
                -1.168177917868479,
                -0.4933436721083929,
                -0.021463468594058184,
                0.3400784557131771,
                0.5498461197472768,
                -0.9955736023076628,
                0.5145849290674251,
                -0.045564707647823915,
                0.5021815583306877,
                0.44625706942632054,
                -1.2114590819550977,
                -0.12424419442025855,
                -0.4813204317783261,
                -0.9859613457401379,
                -1.610230133747824,
                -1.315102772583369,
                2.3437026387227635,
                0.6812799516880494,
                0.5105654109834903,
                0.32045231075997027,
                -0.16196565363711407,
                -1.0767504046560548,
                0.35084706624963774,
                0.3252338000505375,
                0.11676654953193523,
                -1.0965712830562508,
                1.36097978010898,
                -0.3673548959707283,
                -0.21273219802707966,
                0.051789795999847045,
                0.06890028935207627,
                -0.877910021681764,
                -0.5793907022007047,
                -0.6659819678864213,
                -1.28520073997655,
                0.12187737440277517,
                -0.32837675911219866,
                -1.474993750270233,
                0.9478361595802577,
                1.1200334940463113,
                0.4227033654925944,
                1.1596623718301717,
                0.8327475276722885,
                -0.6503051425394124,
                0.4975922565201773,
                1.2018185797363106,
                0.19952109464241724,
                1.4382841860903879,
                0.4769684638528224,
                -1.4403860862389137,
                -0.4648483224513499,
                -0.17862131803005452,
                0.18369313650703378,
                -1.4216496587891971,
                -1.179668750406936,
                -0.23086973951416914,
                -0.0020414633487035195,
                0.5677255100665198,
                0.5624189881783784,
                1.0644659865399941,
                -2.080855284162277,
                0.5843050595372893,
                0.6075399300039686,
                -0.9607339376931617,
                -0.18914430575667132,
                0.3642567679340612,
                1.2900454784118476,
                0.29594542886071307,
                -0.6730866120939775,
                -0.5122738594129193,
                -0.319028485789226,
                0.23518981018770066,
                0.3763596664848051,
                -2.4938132848629775,
                -0.008306703707536207,
                0.45457619444548786,
                1.736310877853466,
                1.083916302827974,
                -0.8561886883853612,
                0.26334760940019986,
                0.5388887684598882,
                0.2641842152671282,
                -2.4073689857211646,
                2.1149021675289412,
                -0.07874355358023812,
                1.3966482559742275,
                -1.1284693515222004,
                0.24823877015967066,
                0.23550998968768055,
                0.05702983071539833,
                -1.8777772675038713,
                1.7951481240697573,
                -0.03805742196501407,
                0.4649040349492372,
                0.7253337897868619,
                0.9286589986271786,
                -0.09936688585877074,
                1.4958812220189557,
                0.025918915990977214,
                1.304862622285267,
                -0.23520173648665485,
                -0.9067772541096735,
                0.3985410796364845,
                -2.0382695271531563,
                0.057942473222550916,
                -0.8609037970578246,
                0.8103623668773524,
                -0.6846627618816156,
                1.450189381431846,
                1.3180757018294313,
                1.4777023717295088,
                0.2178838653173051,
                -0.37755356002026264,
                0.6999951530598274,
                -0.892836958432935,
                0.5368992141494977,
                0.3275616717417142,
                0.1488393436538031,
                -1.7825509752245574,
                0.6291481917188249,
                1.1495578575965095,
                -0.9325509330588017,
                2.4828166432607652,
                1.5146546309417703,
                2.622278317737414,
                0.8283207775854008,
                -1.6216534979577566,
                -0.4734502712450709,
                -0.21138083112898914,
                -0.44602443582775153,
                -1.5858791639308933,
                0.6598812657983422,
                0.0641611068817466,
                0.7262001629814823,
                0.7794289846363417,
                0.0526478238533561,
                -1.3397963546960032,
                2.2075273780777303,
                -0.5008215748125838,
                0.327802551428242,
                -1.0067532802311836,
                -1.680623465326459,
                -0.763514772551847,
                -0.040665394602667236,
                -0.6814674031193497,
                -1.1913928097972792,
                -0.6116304727246219,
                0.8500571668859565,
                -1.7283099331016925,
                0.692644006381129,
                -0.9639994231054861,
                0.4732883377065898,
                1.0594513952195634,
                0.6141164915528142,
                -0.5085035880223209,
                1.0896262424599599,
                -0.23523994414078386,
                -0.5468789774216434,
                -1.1216774975868056,
                -0.06933854220084074,
                1.9814148132508518,
                -1.4660513314685277,
                -1.2177865160028338,
                -0.06990035979709716,
                1.9384473664701407,
                -1.1110690657886402,
                -0.60041229538867,
                -0.45393341357568595,
                0.7636427655361663,
                1.51123206145908,
                -0.0679356604201861,
                -0.14736575642289398,
                1.2364825811468438,
                1.4689578741590164,
                0.19165205791449327,
                -0.07435089298595426,
                0.06206130091961132,
                -0.30202298315142806,
                -0.21186052975436484,
                2.2203379479083125,
                0.783579320299244,
                0.4732530395944661,
                -0.005403602751162481,
                -0.6147660022007475,
                1.6114802052679367,
                -0.5081782702768437,
                -1.921477826760701,
                1.7357980180640458,
                -0.38644005961236266,
                0.6954241307512403,
                0.3562236266627581,
                0.7647062285206433,
                -0.30398197873045385,
                -0.020970169217319645,
                -0.730699327538243,
                -1.3117359392141497,
                0.33640845001125586,
                -2.200215112429329,
                0.5210767799714896,
                -0.24908562828771988,
                -0.9846453054380677,
                -0.5325644738417807,
                0.7401566105120957,
                -1.2252781838472973,
                0.708777158587633,
                0.1075250286141162,
                -0.4043804389059164,
                -0.7281906076912348,
                -0.5600132764775387,
                2.056298242924044,
                -1.941081784435252,
                -0.02530939015876077,
                1.831228367205171,
                0.5173008812435635,
                0.7515683512888794,
                -1.4513891274331128,
                0.4129095457826629,
                -0.25755498250706005,
                -0.40410001687043456,
                -0.20244541316662612,
                -0.027810663026592315,
                -1.8311100043206285,
                -1.377749436660135,
                -0.06791122211794266,
                -0.08118492025366285,
                -0.6734607939600458,
                1.6579484213696327,
                1.0153875783103545,
                0.3509785978731197,
                0.19210044317825306,
                0.4904588761555085,
                -0.06894307443289181,
                -0.6972572049633347,
                -0.5243592905355262,
                -0.4531602728218986,
                -0.6379521316847705,
                0.4625249965173477,
                1.808279026407894,
                -0.07466460004441053,
                0.12238152917385815,
                -0.9890729692904494,
                1.106408613463356,
                0.7328405919513757,
                0.8106347062150702,
                0.04583649059938994,
                -0.8409433266882874,
                0.11287839802231527,
                0.3671730453033491,
                0.7680175561482104,
                0.046576079987997204,
                -0.6993445389938465,
                1.2515494938939256,
                0.4840205379791224,
                -2.075569950318723,
                0.9781161662025663,
                -0.1567260678747853,
                0.32400435875311967,
                -0.3477861677525865,
                0.6842507543614473,
                -0.30976506677038607,
                -1.5239406373755178,
                -1.5355057848598017,
                0.18544033778740932,
                -1.2007068743155678,
                0.3058818784652454,
                0.15751217184279165,
                -1.3843934290580013,
                0.574607881122958,
                1.2755248135542074,
                -1.0750481618659506,
                -0.7128989771626545,
                -0.22346971705975213,
                0.09826476965096784,
                -0.5488465210024648,
                -0.9186027917190835,
                -0.11218643877096288,
                -1.5985316051109664,
                -1.6980281748842674,
                0.8163115309460337,
                -1.1307507554539307,
                -0.07709847290712657,
                0.22560254010439143,
                -0.897774214060647,
                -1.2709701722819304,
                -0.0441411786571984,
                0.2910577047857196,
                0.2502717117976109,
                -0.813297982562472,
                -0.3275885705651843,
                1.025211345031077,
                -1.9705944453405824,
                0.0912968273785383,
                0.36502194785658715,
                -1.6990488286318504,
                -0.3098292965998211,
                -0.01682309658187057,
                0.22809894631161315,
                -1.472704616581221,
                0.6018259061173842,
                -0.08508443635597825,
                -2.4166590934057997,
                0.6045619433171511,
                0.3080196660687861,
                -1.792176637367372,
                -0.10816382576494409,
                1.1301383527552533,
                -0.8414346168441565,
                -0.550063103528984,
                0.5125113528835997,
                1.1217238427843816,
                -0.39240319043224775,
                0.37776628841688153,
                0.47045650584791426,
                0.9341358343292242,
                0.8046070168260607,
                0.6185431298067086,
                0.32189424920761484,
                -1.5400425657095702,
                2.202166337078434,
                0.40818928146933775,
                1.7301847353249569,
                -0.27448696786203036,
                0.15900443564847652,
                -0.8435849981408541,
                0.8032077444877415,
                -0.4198047877291408,
                0.07642060213214319,
                1.6957739234677152,
                -1.6380906763299925,
                -1.6511224786474081,
                -0.309625342745334,
                0.6606104692321776,
                -1.020065086811602,
                0.4983234448189627,
                -0.5324565278435283,
                -0.2557288906321984,
                -0.03501658272257571,
                1.1055208620805166,
                -0.9747136982421596,
                -1.3670709185274634,
                -0.25493550233041207,
                -0.3068710673857669,
                0.448613346175967,
                -0.6533257574180154,
                1.90157319892411,
                0.7741844219194685,
                0.48704509605443946,
                0.7002444558492474,
                2.136592004054841,
                0.4863533364161154,
                0.1449683277717646,
                0.6128544270032041,
                1.299252108406387,
                1.2060848814989702,
                -1.102633451141358,
                -1.5965167438569625,
                0.18426386678890688,
                -0.8546109425659771,
                -0.7117057267949678,
                -0.43479140255134974,
                -1.0477683601960586,
                0.7930640006406047,
                -1.0033744615555995,
                -1.5864575735684203,
                -0.9683091311514279,
                -0.4746021027259318,
                0.03623906069235826,
                0.5542942715581902,
                -0.7953063390772074,
                -0.7497521678366957,
                2.0156480560538688,
                1.2286436575639776,
                -0.12339049683063284,
                -0.31423901166490925,
                -0.1441307161759317,
                -1.9298629300191295,
                1.1614743008918225,
                1.1324194020618197,
                0.4041332231942722,
                0.8063915509084465,
                0.38280467069661195,
                -0.4808615822062762,
                2.251710515622024,
                -1.7834533783840818,
                -0.19169248428061683,
                1.5047448880576169,
                0.9958200660924014,
                0.2961130107463591,
                0.7068624604170982,
                -1.6862650094535476,
                -1.2081779766722351,
                1.1990257797990804,
                1.5000632358223103,
                0.4479054369765752,
                0.773064368960538,
                -1.1471689985690072,
                -0.02540927852211357,
                -0.3732883519796792,
                1.4050514931417408,
                -0.5098415289807045,
                0.5398166774381691,
                2.263600832785056,
                -1.6093097867518356,
                0.3129198489749113,
                -0.830598449081816,
                0.3667443525655862,
                0.4923374677465363,
                -1.5269901001380806,
                1.7203940697582434,
                -0.1645505486467236,
                -0.2505290223652068,
                0.32935141693143877,
                1.230021056025289,
                -0.5901034304759625,
                -0.9944348312568829,
                -0.7002066186893003,
                -0.8857964473302432,
                1.2715249332519076,
                1.4332425582603265,
                -0.38663339426739024,
                -0.06988919227594996,
                -0.8635471568005608,
                -0.8415891128559896,
                -0.1288468646890153,
                0.6515331215612185,
                1.0524313159813696,
                1.6367333620765057,
                -0.47800690646074956,
                1.6339198886988426,
                0.09466495616015495,
                -0.5878975262466639,
                -1.11001290812437,
                0.234759985891893,
                0.35807478794796077,
                0.8070344530023517,
                -0.09340426082333975,
                1.4146574835793266,
                1.573999307692571,
                -0.745580988997977,
                0.25503264201385284,
                0.9504114156148566,
                -0.897108650819765,
                1.6265423048736116,
                0.7212721649117392,
                -0.8490946502552467,
                -1.734750504915286,
                0.4632142346608535,
                -1.9264661808719268,
                -0.10489076896991736,
                -0.807521817849981,
                0.8069679994232402,
                -0.30272999061630473,
                1.2887049673903186,
                -0.12286974627668168,
                0.5758804699189691,
                1.3889127482058916,
                -0.15130142675972313,
                1.8431681273537937,
                0.19078550788817802,
                -1.0376503139605668,
                0.7690321957866207,
                0.7556412356492549,
                0.9531250621043313,
                0.7075890557319137,
                0.18171184711248528,
                0.5313830724167288,
                -0.1350570718079022,
                0.6569831994596411,
                -0.3307706359335694,
                0.3055980628371236,
                -0.19298708904333534,
                0.011153428056646951,
                -0.6675824734160505,
                -0.8066693110859982,
                -0.19372948850616875,
                -0.9255905559103256,
                -0.5697314702855243,
                -0.3783294338708814,
                -0.8387283388378107,
                -1.4010497477085835,
                0.27641167611220346,
                -0.9559048395550332,
                0.900635696552191
            ],
            [
                -0.20047327970913226,
                0.414873398517735,
                -0.7279941521610722,
                0.9903164095008775,
                -0.5322224459279838,
                1.5652936962230608,
                -0.20708730483683546,
                -1.0866372541166327,
                0.4442626355113373,
                0.35911386925387634,
                0.1146964046285628,
                -0.45032050913244326,
                -0.8149332435434533,
                -2.3397211924735544,
                0.42234778642528126,
                -1.114715118732451,
                0.831134354792429,
                -1.8111889781123651,
                -1.852815997342145,
                -1.3223776257589,
                0.23176748049449572,
                2.719488214747444,
                0.34173444688130117,
                1.6643327970367874,
                0.9411124194238697,
                1.0492558263841483,
                0.8287550853802463,
                1.1032845589638511,
                -0.2211630858310233,
                1.506183250970354,
                0.5040986343503164,
                -0.16351542570459238,
                1.3688287496800005,
                1.1655142298104817,
                0.6649008340266743,
                0.9911008701155758,
                0.07623746083761002,
                0.719751305330567,
                0.9101773924373007,
                0.3419115451500776,
                -0.19478112853822024,
                0.5356286548352392,
                -0.9366372192525548,
                -0.690146319231203,
                -0.09130178081540723,
                0.42056421952215156,
                -0.37175374429482944,
                -0.6693903317473068,
                1.2496726631592374,
                -0.2030594241153807,
                0.4496393703964156,
                -0.3446734519988491,
                -0.20930170063731587,
                0.13141010901155845,
                -1.317360079192612,
                -0.23794546620289803,
                -1.9017237732153782,
                0.5743860368044209,
                -1.3546320428047278,
                0.3939283926118854,
                1.2684849597264385,
                0.1297675650589223,
                -1.2739082292810051,
                0.34058900997934927,
                -0.03579174481620365,
                1.3855165091509576,
                0.10022061192176937,
                0.3722979754268948,
                0.14470517893780807,
                -1.3218561899901249,
                -0.634065264448581,
                -2.062922841361447,
                2.096668411705801,
                0.0139158637563115,
                1.5329943639864507,
                -1.2149106455077205,
                1.1986998015435133,
                -0.33324857152367293,
                0.5926172819531408,
                -1.2274299785284932,
                0.46220416338672976,
                -0.6638622780774189,
                1.467184225312893,
                0.5990905235233343,
                -0.5941170669466558,
                0.26338418239005595,
                -1.0161144526445405,
                -0.8108910090495189,
                -0.7111385710990824,
                0.2161721250310964,
                0.3680622691314189,
                0.6702009877477787,
                0.06183083424414239,
                1.5674422898348808,
                -0.8620796659378588,
                -0.9855700892536253,
                0.7555886858441883,
                -0.8630008796934298,
                -1.707079525077743,
                -0.8194404394172662,
                1.0619643800796346,
                0.3710066236888623,
                0.11210976636428001,
                -0.6263902569964018,
                -0.5009968071750608,
                0.7685975824253094,
                -0.8414277058803485,
                0.5924703703769861,
                0.6570850136189321,
                1.2267494298323518,
                0.3167021256539141,
                -1.6580521843198701,
                -1.4277774313545604,
                -1.1811260858934398,
                -1.8442261331448246,
                -1.6184425358772156,
                -1.41071285756149,
                0.9294448149349565,
                0.26336320423002624,
                0.6432071348295183,
                -1.746846938398094,
                0.21632772767705905,
                -1.7005614472145063,
                -0.774797246712445,
                0.8990580731498757,
                -0.9654634800067042,
                -1.2460500821177374,
                0.33621308679597306,
                0.6334149330897375,
                -1.7741060103941926,
                -0.33114356514416804,
                1.683520259081248,
                0.8600117006128132,
                -0.12523312044836105,
                0.7553529221867243,
                -1.0042224148914385,
                0.12686546558269696,
                0.06426178336113361,
                0.5466328671796491,
                -0.5436589719794263,
                0.700701524435997,
                -0.9364633577069083,
                0.008615759395449549,
                -0.6265043350343714,
                0.6317760667241276,
                -0.5525837351031184,
                0.9064607647177372,
                -0.2635958653390612,
                0.688792006251399,
                -0.3776350454213066,
                1.3296281966446781,
                -0.694039705501386,
                0.6721011345591256,
                1.1185106929456112,
                -0.9879743517972004,
                0.7005003982201928,
                -0.3828701247594548,
                0.005464383834768052,
                0.6152067359022589,
                2.4050077284891254,
                -0.727294798748986,
                1.3941875512506017,
                -0.1468233847092099,
                -1.8889187106469514,
                -0.48591126312515215,
                0.5221371951403403,
                0.4637221744141935,
                1.0311765700334368,
                1.2941976545029426,
                -0.09738886488301626,
                -0.2325133589694835,
                -0.07284296366689805,
                -0.938680724719611,
                -0.6548815567416522,
                0.4664902225534732,
                0.8616970340917719,
                -2.47337213246184,
                1.6302012403995643,
                -0.11328589920966771,
                1.6468306184419428,
                -0.6935874168763495,
                2.0105491786989425,
                -0.1234971966733452,
                0.4193882310838855,
                1.1852372053902778,
                0.7403769623520138,
                0.20646573163653353,
                1.157378523958055,
                0.92626815463888,
                -2.033276657719029,
                0.2170212404812443,
                -1.0653817435158124,
                0.03281642001683578,
                -0.38288210036877296,
                -0.18838782114588917,
                -1.7139477364265436,
                0.9489461669194462,
                1.9807986509501911,
                0.822456456083951,
                -0.12851608733841385,
                -1.0517878566290386,
                1.694658456162909,
                1.159649790829756,
                0.975096443841212,
                0.5251790330895268,
                -0.26584832254099106,
                -2.009818482474294,
                -2.7351741322387024,
                -1.5885214396633187,
                -0.05521605722057928,
                -1.6952342649681886,
                0.7152998627195093,
                -3.070915244066022,
                0.5064571999889576,
                -0.47982903757686024,
                0.8981699584624114,
                -0.3224312309456818,
                0.683842880881819,
                -0.7747085642885301,
                0.4542428032765632,
                -1.529892569366565,
                -0.03691888400423557,
                -0.85415088713865,
                -0.6364974212390766,
                1.485605282171277,
                -0.4785426112226755,
                -0.030589820776163106,
                1.168450833196351,
                -0.04869913776425355,
                -0.9700296326434651,
                0.6928482673686307,
                -0.1511627479145952,
                -0.8469186358696672,
                -0.5427727272300422,
                0.7916565122968973,
                -0.5455293904823529,
                0.12387600601433459,
                1.8317007358630273,
                -0.16815048021853243,
                0.04418296227385843,
                -1.456957434212056,
                -0.580800700441732,
                2.5466185064042177,
                -0.013969083383565483,
                -0.705996491644045,
                0.5173204641435931,
                2.284534992995391,
                0.5608059324501564,
                0.5812268142823855,
                -0.4566603433675721,
                1.1199401742224937,
                0.09238261583177526,
                -1.269319490924711,
                0.024533555024393017,
                0.15719403154567474,
